FANN_FLO_2.1
num_layers=3
learning_rate=0.700000
connection_rate=1.000000
network_type=0
learning_momentum=0.000000
training_algorithm=0
train_error_function=1
train_stop_function=0
cascade_output_change_fraction=0.010000
quickprop_decay=-0.000100
quickprop_mu=1.750000
rprop_increase_factor=1.200000
rprop_decrease_factor=0.500000
rprop_delta_min=0.000000
rprop_delta_max=50.000000
rprop_delta_zero=0.100000
cascade_output_stagnation_epochs=12
cascade_candidate_change_fraction=0.010000
cascade_candidate_stagnation_epochs=12
cascade_max_out_epochs=150
cascade_min_out_epochs=50
cascade_max_cand_epochs=150
cascade_min_cand_epochs=50
cascade_num_candidate_groups=2
bit_fail_limit=3.49999994039535522461e-01
cascade_candidate_limit=1.00000000000000000000e+03
cascade_weight_multiplier=4.00000005960464477539e-01
cascade_activation_functions_count=10
cascade_activation_functions=3 5 7 8 10 11 14 15 16 17 
cascade_activation_steepnesses_count=4
cascade_activation_steepnesses=2.50000000000000000000e-01 5.00000000000000000000e-01 7.50000000000000000000e-01 1.00000000000000000000e+00 
layer_sizes=4 405 102 
scale_included=0
neurons (num_inputs, activation_function, activation_steepness)=(0, 0, 0.00000000000000000000e+00) (0, 0, 0.00000000000000000000e+00) (0, 0, 0.00000000000000000000e+00) (0, 0, 0.00000000000000000000e+00) (4, 5, 9.99999977648258209229e-03) (4, 5, 9.99999977648258209229e-03) (4, 5, 9.99999977648258209229e-03) (4, 5, 9.99999977648258209229e-03) (4, 5, 9.99999977648258209229e-03) (4, 5, 9.99999977648258209229e-03) (4, 5, 9.99999977648258209229e-03) (4, 5, 9.99999977648258209229e-03) (4, 5, 9.99999977648258209229e-03) (4, 5, 9.99999977648258209229e-03) (4, 5, 9.99999977648258209229e-03) (4, 5, 9.99999977648258209229e-03) (4, 5, 9.99999977648258209229e-03) (4, 5, 9.99999977648258209229e-03) (4, 5, 9.99999977648258209229e-03) (4, 5, 9.99999977648258209229e-03) (4, 5, 9.99999977648258209229e-03) (4, 5, 9.99999977648258209229e-03) (4, 5, 9.99999977648258209229e-03) (4, 5, 9.99999977648258209229e-03) (4, 5, 9.99999977648258209229e-03) (4, 5, 9.99999977648258209229e-03) (4, 5, 9.99999977648258209229e-03) (4, 5, 9.99999977648258209229e-03) (4, 5, 9.99999977648258209229e-03) (4, 5, 9.99999977648258209229e-03) (4, 5, 9.99999977648258209229e-03) (4, 5, 9.99999977648258209229e-03) (4, 5, 9.99999977648258209229e-03) (4, 5, 9.99999977648258209229e-03) (4, 5, 9.99999977648258209229e-03) (4, 5, 9.99999977648258209229e-03) (4, 5, 9.99999977648258209229e-03) (4, 5, 9.99999977648258209229e-03) (4, 5, 9.99999977648258209229e-03) (4, 5, 9.99999977648258209229e-03) (4, 5, 9.99999977648258209229e-03) (4, 5, 9.99999977648258209229e-03) (4, 5, 9.99999977648258209229e-03) (4, 5, 9.99999977648258209229e-03) (4, 5, 9.99999977648258209229e-03) (4, 5, 9.99999977648258209229e-03) (4, 5, 9.99999977648258209229e-03) (4, 5, 9.99999977648258209229e-03) (4, 5, 9.99999977648258209229e-03) (4, 5, 9.99999977648258209229e-03) (4, 5, 9.99999977648258209229e-03) (4, 5, 9.99999977648258209229e-03) (4, 5, 9.99999977648258209229e-03) (4, 5, 9.99999977648258209229e-03) (4, 5, 9.99999977648258209229e-03) (4, 5, 9.99999977648258209229e-03) (4, 5, 9.99999977648258209229e-03) (4, 5, 9.99999977648258209229e-03) (4, 5, 9.99999977648258209229e-03) (4, 5, 9.99999977648258209229e-03) (4, 5, 9.99999977648258209229e-03) (4, 5, 9.99999977648258209229e-03) (4, 5, 9.99999977648258209229e-03) (4, 5, 9.99999977648258209229e-03) (4, 5, 9.99999977648258209229e-03) (4, 5, 9.99999977648258209229e-03) (4, 5, 9.99999977648258209229e-03) (4, 5, 9.99999977648258209229e-03) (4, 5, 9.99999977648258209229e-03) (4, 5, 9.99999977648258209229e-03) (4, 5, 9.99999977648258209229e-03) (4, 5, 9.99999977648258209229e-03) (4, 5, 9.99999977648258209229e-03) (4, 5, 9.99999977648258209229e-03) (4, 5, 9.99999977648258209229e-03) (4, 5, 9.99999977648258209229e-03) (4, 5, 9.99999977648258209229e-03) (4, 5, 9.99999977648258209229e-03) (4, 5, 9.99999977648258209229e-03) (4, 5, 9.99999977648258209229e-03) (4, 5, 9.99999977648258209229e-03) (4, 5, 9.99999977648258209229e-03) (4, 5, 9.99999977648258209229e-03) (4, 5, 9.99999977648258209229e-03) (4, 5, 9.99999977648258209229e-03) (4, 5, 9.99999977648258209229e-03) (4, 5, 9.99999977648258209229e-03) (4, 5, 9.99999977648258209229e-03) (4, 5, 9.99999977648258209229e-03) (4, 5, 9.99999977648258209229e-03) (4, 5, 9.99999977648258209229e-03) (4, 5, 9.99999977648258209229e-03) (4, 5, 9.99999977648258209229e-03) (4, 5, 9.99999977648258209229e-03) (4, 5, 9.99999977648258209229e-03) (4, 5, 9.99999977648258209229e-03) (4, 5, 9.99999977648258209229e-03) (4, 5, 9.99999977648258209229e-03) (4, 5, 9.99999977648258209229e-03) (4, 5, 9.99999977648258209229e-03) (4, 5, 9.99999977648258209229e-03) (4, 5, 9.99999977648258209229e-03) (4, 5, 9.99999977648258209229e-03) (4, 5, 9.99999977648258209229e-03) (4, 5, 9.99999977648258209229e-03) (4, 5, 9.99999977648258209229e-03) (4, 5, 9.99999977648258209229e-03) (4, 5, 9.99999977648258209229e-03) (4, 5, 9.99999977648258209229e-03) (4, 5, 9.99999977648258209229e-03) (4, 5, 9.99999977648258209229e-03) (4, 5, 9.99999977648258209229e-03) (4, 5, 9.99999977648258209229e-03) (4, 5, 9.99999977648258209229e-03) (4, 5, 9.99999977648258209229e-03) (4, 5, 9.99999977648258209229e-03) (4, 5, 9.99999977648258209229e-03) (4, 5, 9.99999977648258209229e-03) (4, 5, 9.99999977648258209229e-03) (4, 5, 9.99999977648258209229e-03) (4, 5, 9.99999977648258209229e-03) (4, 5, 9.99999977648258209229e-03) (4, 5, 9.99999977648258209229e-03) (4, 5, 9.99999977648258209229e-03) (4, 5, 9.99999977648258209229e-03) (4, 5, 9.99999977648258209229e-03) (4, 5, 9.99999977648258209229e-03) (4, 5, 9.99999977648258209229e-03) (4, 5, 9.99999977648258209229e-03) (4, 5, 9.99999977648258209229e-03) (4, 5, 9.99999977648258209229e-03) (4, 5, 9.99999977648258209229e-03) (4, 5, 9.99999977648258209229e-03) (4, 5, 9.99999977648258209229e-03) (4, 5, 9.99999977648258209229e-03) (4, 5, 9.99999977648258209229e-03) (4, 5, 9.99999977648258209229e-03) (4, 5, 9.99999977648258209229e-03) (4, 5, 9.99999977648258209229e-03) (4, 5, 9.99999977648258209229e-03) (4, 5, 9.99999977648258209229e-03) (4, 5, 9.99999977648258209229e-03) (4, 5, 9.99999977648258209229e-03) (4, 5, 9.99999977648258209229e-03) (4, 5, 9.99999977648258209229e-03) (4, 5, 9.99999977648258209229e-03) (4, 5, 9.99999977648258209229e-03) (4, 5, 9.99999977648258209229e-03) (4, 5, 9.99999977648258209229e-03) (4, 5, 9.99999977648258209229e-03) (4, 5, 9.99999977648258209229e-03) (4, 5, 9.99999977648258209229e-03) (4, 5, 9.99999977648258209229e-03) (4, 5, 9.99999977648258209229e-03) (4, 5, 9.99999977648258209229e-03) (4, 5, 9.99999977648258209229e-03) (4, 5, 9.99999977648258209229e-03) (4, 5, 9.99999977648258209229e-03) (4, 5, 9.99999977648258209229e-03) (4, 5, 9.99999977648258209229e-03) (4, 5, 9.99999977648258209229e-03) (4, 5, 9.99999977648258209229e-03) (4, 5, 9.99999977648258209229e-03) (4, 5, 9.99999977648258209229e-03) (4, 5, 9.99999977648258209229e-03) (4, 5, 9.99999977648258209229e-03) (4, 5, 9.99999977648258209229e-03) (4, 5, 9.99999977648258209229e-03) (4, 5, 9.99999977648258209229e-03) (4, 5, 9.99999977648258209229e-03) (4, 5, 9.99999977648258209229e-03) (4, 5, 9.99999977648258209229e-03) (4, 5, 9.99999977648258209229e-03) (4, 5, 9.99999977648258209229e-03) (4, 5, 9.99999977648258209229e-03) (4, 5, 9.99999977648258209229e-03) (4, 5, 9.99999977648258209229e-03) (4, 5, 9.99999977648258209229e-03) (4, 5, 9.99999977648258209229e-03) (4, 5, 9.99999977648258209229e-03) (4, 5, 9.99999977648258209229e-03) (4, 5, 9.99999977648258209229e-03) (4, 5, 9.99999977648258209229e-03) (4, 5, 9.99999977648258209229e-03) (4, 5, 9.99999977648258209229e-03) (4, 5, 9.99999977648258209229e-03) (4, 5, 9.99999977648258209229e-03) (4, 5, 9.99999977648258209229e-03) (4, 5, 9.99999977648258209229e-03) (4, 5, 9.99999977648258209229e-03) (4, 5, 9.99999977648258209229e-03) (4, 5, 9.99999977648258209229e-03) (4, 5, 9.99999977648258209229e-03) (4, 5, 9.99999977648258209229e-03) (4, 5, 9.99999977648258209229e-03) (4, 5, 9.99999977648258209229e-03) (4, 5, 9.99999977648258209229e-03) (4, 5, 9.99999977648258209229e-03) (4, 5, 9.99999977648258209229e-03) (4, 5, 9.99999977648258209229e-03) (4, 5, 9.99999977648258209229e-03) (4, 5, 9.99999977648258209229e-03) (4, 5, 9.99999977648258209229e-03) (4, 5, 9.99999977648258209229e-03) (4, 5, 9.99999977648258209229e-03) (4, 5, 9.99999977648258209229e-03) (4, 5, 9.99999977648258209229e-03) (4, 5, 9.99999977648258209229e-03) (4, 5, 9.99999977648258209229e-03) (4, 5, 9.99999977648258209229e-03) (4, 5, 9.99999977648258209229e-03) (4, 5, 9.99999977648258209229e-03) (4, 5, 9.99999977648258209229e-03) (4, 5, 9.99999977648258209229e-03) (4, 5, 9.99999977648258209229e-03) (4, 5, 9.99999977648258209229e-03) (4, 5, 9.99999977648258209229e-03) (4, 5, 9.99999977648258209229e-03) (4, 5, 9.99999977648258209229e-03) (4, 5, 9.99999977648258209229e-03) (4, 5, 9.99999977648258209229e-03) (4, 5, 9.99999977648258209229e-03) (4, 5, 9.99999977648258209229e-03) (4, 5, 9.99999977648258209229e-03) (4, 5, 9.99999977648258209229e-03) (4, 5, 9.99999977648258209229e-03) (4, 5, 9.99999977648258209229e-03) (4, 5, 9.99999977648258209229e-03) (4, 5, 9.99999977648258209229e-03) (4, 5, 9.99999977648258209229e-03) (4, 5, 9.99999977648258209229e-03) (4, 5, 9.99999977648258209229e-03) (4, 5, 9.99999977648258209229e-03) (4, 5, 9.99999977648258209229e-03) (4, 5, 9.99999977648258209229e-03) (4, 5, 9.99999977648258209229e-03) (4, 5, 9.99999977648258209229e-03) (4, 5, 9.99999977648258209229e-03) (4, 5, 9.99999977648258209229e-03) (4, 5, 9.99999977648258209229e-03) (4, 5, 9.99999977648258209229e-03) (4, 5, 9.99999977648258209229e-03) (4, 5, 9.99999977648258209229e-03) (4, 5, 9.99999977648258209229e-03) (4, 5, 9.99999977648258209229e-03) (4, 5, 9.99999977648258209229e-03) (4, 5, 9.99999977648258209229e-03) (4, 5, 9.99999977648258209229e-03) (4, 5, 9.99999977648258209229e-03) (4, 5, 9.99999977648258209229e-03) (4, 5, 9.99999977648258209229e-03) (4, 5, 9.99999977648258209229e-03) (4, 5, 9.99999977648258209229e-03) (4, 5, 9.99999977648258209229e-03) (4, 5, 9.99999977648258209229e-03) (4, 5, 9.99999977648258209229e-03) (4, 5, 9.99999977648258209229e-03) (4, 5, 9.99999977648258209229e-03) (4, 5, 9.99999977648258209229e-03) (4, 5, 9.99999977648258209229e-03) (4, 5, 9.99999977648258209229e-03) (4, 5, 9.99999977648258209229e-03) (4, 5, 9.99999977648258209229e-03) (4, 5, 9.99999977648258209229e-03) (4, 5, 9.99999977648258209229e-03) (4, 5, 9.99999977648258209229e-03) (4, 5, 9.99999977648258209229e-03) (4, 5, 9.99999977648258209229e-03) (4, 5, 9.99999977648258209229e-03) (4, 5, 9.99999977648258209229e-03) (4, 5, 9.99999977648258209229e-03) (4, 5, 9.99999977648258209229e-03) (4, 5, 9.99999977648258209229e-03) (4, 5, 9.99999977648258209229e-03) (4, 5, 9.99999977648258209229e-03) (4, 5, 9.99999977648258209229e-03) (4, 5, 9.99999977648258209229e-03) (4, 5, 9.99999977648258209229e-03) (4, 5, 9.99999977648258209229e-03) (4, 5, 9.99999977648258209229e-03) (4, 5, 9.99999977648258209229e-03) (4, 5, 9.99999977648258209229e-03) (4, 5, 9.99999977648258209229e-03) (4, 5, 9.99999977648258209229e-03) (4, 5, 9.99999977648258209229e-03) (4, 5, 9.99999977648258209229e-03) (4, 5, 9.99999977648258209229e-03) (4, 5, 9.99999977648258209229e-03) (4, 5, 9.99999977648258209229e-03) (4, 5, 9.99999977648258209229e-03) (4, 5, 9.99999977648258209229e-03) (4, 5, 9.99999977648258209229e-03) (4, 5, 9.99999977648258209229e-03) (4, 5, 9.99999977648258209229e-03) (4, 5, 9.99999977648258209229e-03) (4, 5, 9.99999977648258209229e-03) (4, 5, 9.99999977648258209229e-03) (4, 5, 9.99999977648258209229e-03) (4, 5, 9.99999977648258209229e-03) (4, 5, 9.99999977648258209229e-03) (4, 5, 9.99999977648258209229e-03) (4, 5, 9.99999977648258209229e-03) (4, 5, 9.99999977648258209229e-03) (4, 5, 9.99999977648258209229e-03) (4, 5, 9.99999977648258209229e-03) (4, 5, 9.99999977648258209229e-03) (4, 5, 9.99999977648258209229e-03) (4, 5, 9.99999977648258209229e-03) (4, 5, 9.99999977648258209229e-03) (4, 5, 9.99999977648258209229e-03) (4, 5, 9.99999977648258209229e-03) (4, 5, 9.99999977648258209229e-03) (4, 5, 9.99999977648258209229e-03) (4, 5, 9.99999977648258209229e-03) (4, 5, 9.99999977648258209229e-03) (4, 5, 9.99999977648258209229e-03) (4, 5, 9.99999977648258209229e-03) (4, 5, 9.99999977648258209229e-03) (4, 5, 9.99999977648258209229e-03) (4, 5, 9.99999977648258209229e-03) (4, 5, 9.99999977648258209229e-03) (4, 5, 9.99999977648258209229e-03) (4, 5, 9.99999977648258209229e-03) (4, 5, 9.99999977648258209229e-03) (4, 5, 9.99999977648258209229e-03) (4, 5, 9.99999977648258209229e-03) (4, 5, 9.99999977648258209229e-03) (4, 5, 9.99999977648258209229e-03) (4, 5, 9.99999977648258209229e-03) (4, 5, 9.99999977648258209229e-03) (4, 5, 9.99999977648258209229e-03) (4, 5, 9.99999977648258209229e-03) (4, 5, 9.99999977648258209229e-03) (4, 5, 9.99999977648258209229e-03) (4, 5, 9.99999977648258209229e-03) (4, 5, 9.99999977648258209229e-03) (4, 5, 9.99999977648258209229e-03) (4, 5, 9.99999977648258209229e-03) (4, 5, 9.99999977648258209229e-03) (4, 5, 9.99999977648258209229e-03) (4, 5, 9.99999977648258209229e-03) (4, 5, 9.99999977648258209229e-03) (4, 5, 9.99999977648258209229e-03) (4, 5, 9.99999977648258209229e-03) (4, 5, 9.99999977648258209229e-03) (4, 5, 9.99999977648258209229e-03) (4, 5, 9.99999977648258209229e-03) (4, 5, 9.99999977648258209229e-03) (4, 5, 9.99999977648258209229e-03) (4, 5, 9.99999977648258209229e-03) (4, 5, 9.99999977648258209229e-03) (4, 5, 9.99999977648258209229e-03) (4, 5, 9.99999977648258209229e-03) (4, 5, 9.99999977648258209229e-03) (4, 5, 9.99999977648258209229e-03) (4, 5, 9.99999977648258209229e-03) (4, 5, 9.99999977648258209229e-03) (4, 5, 9.99999977648258209229e-03) (4, 5, 9.99999977648258209229e-03) (4, 5, 9.99999977648258209229e-03) (4, 5, 9.99999977648258209229e-03) (4, 5, 9.99999977648258209229e-03) (4, 5, 9.99999977648258209229e-03) (4, 5, 9.99999977648258209229e-03) (4, 5, 9.99999977648258209229e-03) (4, 5, 9.99999977648258209229e-03) (4, 5, 9.99999977648258209229e-03) (4, 5, 9.99999977648258209229e-03) (4, 5, 9.99999977648258209229e-03) (4, 5, 9.99999977648258209229e-03) (4, 5, 9.99999977648258209229e-03) (4, 5, 9.99999977648258209229e-03) (4, 5, 9.99999977648258209229e-03) (4, 5, 9.99999977648258209229e-03) (4, 5, 9.99999977648258209229e-03) (4, 5, 9.99999977648258209229e-03) (4, 5, 9.99999977648258209229e-03) (4, 5, 9.99999977648258209229e-03) (4, 5, 9.99999977648258209229e-03) (4, 5, 9.99999977648258209229e-03) (4, 5, 9.99999977648258209229e-03) (4, 5, 9.99999977648258209229e-03) (4, 5, 9.99999977648258209229e-03) (4, 5, 9.99999977648258209229e-03) (4, 5, 9.99999977648258209229e-03) (4, 5, 9.99999977648258209229e-03) (4, 5, 9.99999977648258209229e-03) (4, 5, 9.99999977648258209229e-03) (4, 5, 9.99999977648258209229e-03) (4, 5, 9.99999977648258209229e-03) (4, 5, 9.99999977648258209229e-03) (4, 5, 9.99999977648258209229e-03) (4, 5, 9.99999977648258209229e-03) (4, 5, 9.99999977648258209229e-03) (4, 5, 9.99999977648258209229e-03) (4, 5, 9.99999977648258209229e-03) (4, 5, 9.99999977648258209229e-03) (4, 5, 9.99999977648258209229e-03) (4, 5, 9.99999977648258209229e-03) (4, 5, 9.99999977648258209229e-03) (4, 5, 9.99999977648258209229e-03) (4, 5, 9.99999977648258209229e-03) (4, 5, 9.99999977648258209229e-03) (4, 5, 9.99999977648258209229e-03) (4, 5, 9.99999977648258209229e-03) (4, 5, 9.99999977648258209229e-03) (4, 5, 9.99999977648258209229e-03) (4, 5, 9.99999977648258209229e-03) (0, 0, 0.00000000000000000000e+00) (405, 5, 9.99999977648258209229e-03) (405, 5, 9.99999977648258209229e-03) (405, 5, 9.99999977648258209229e-03) (405, 5, 9.99999977648258209229e-03) (405, 5, 9.99999977648258209229e-03) (405, 5, 9.99999977648258209229e-03) (405, 5, 9.99999977648258209229e-03) (405, 5, 9.99999977648258209229e-03) (405, 5, 9.99999977648258209229e-03) (405, 5, 9.99999977648258209229e-03) (405, 5, 9.99999977648258209229e-03) (405, 5, 9.99999977648258209229e-03) (405, 5, 9.99999977648258209229e-03) (405, 5, 9.99999977648258209229e-03) (405, 5, 9.99999977648258209229e-03) (405, 5, 9.99999977648258209229e-03) (405, 5, 9.99999977648258209229e-03) (405, 5, 9.99999977648258209229e-03) (405, 5, 9.99999977648258209229e-03) (405, 5, 9.99999977648258209229e-03) (405, 5, 9.99999977648258209229e-03) (405, 5, 9.99999977648258209229e-03) (405, 5, 9.99999977648258209229e-03) (405, 5, 9.99999977648258209229e-03) (405, 5, 9.99999977648258209229e-03) (405, 5, 9.99999977648258209229e-03) (405, 5, 9.99999977648258209229e-03) (405, 5, 9.99999977648258209229e-03) (405, 5, 9.99999977648258209229e-03) (405, 5, 9.99999977648258209229e-03) (405, 5, 9.99999977648258209229e-03) (405, 5, 9.99999977648258209229e-03) (405, 5, 9.99999977648258209229e-03) (405, 5, 9.99999977648258209229e-03) (405, 5, 9.99999977648258209229e-03) (405, 5, 9.99999977648258209229e-03) (405, 5, 9.99999977648258209229e-03) (405, 5, 9.99999977648258209229e-03) (405, 5, 9.99999977648258209229e-03) (405, 5, 9.99999977648258209229e-03) (405, 5, 9.99999977648258209229e-03) (405, 5, 9.99999977648258209229e-03) (405, 5, 9.99999977648258209229e-03) (405, 5, 9.99999977648258209229e-03) (405, 5, 9.99999977648258209229e-03) (405, 5, 9.99999977648258209229e-03) (405, 5, 9.99999977648258209229e-03) (405, 5, 9.99999977648258209229e-03) (405, 5, 9.99999977648258209229e-03) (405, 5, 9.99999977648258209229e-03) (405, 5, 9.99999977648258209229e-03) (405, 5, 9.99999977648258209229e-03) (405, 5, 9.99999977648258209229e-03) (405, 5, 9.99999977648258209229e-03) (405, 5, 9.99999977648258209229e-03) (405, 5, 9.99999977648258209229e-03) (405, 5, 9.99999977648258209229e-03) (405, 5, 9.99999977648258209229e-03) (405, 5, 9.99999977648258209229e-03) (405, 5, 9.99999977648258209229e-03) (405, 5, 9.99999977648258209229e-03) (405, 5, 9.99999977648258209229e-03) (405, 5, 9.99999977648258209229e-03) (405, 5, 9.99999977648258209229e-03) (405, 5, 9.99999977648258209229e-03) (405, 5, 9.99999977648258209229e-03) (405, 5, 9.99999977648258209229e-03) (405, 5, 9.99999977648258209229e-03) (405, 5, 9.99999977648258209229e-03) (405, 5, 9.99999977648258209229e-03) (405, 5, 9.99999977648258209229e-03) (405, 5, 9.99999977648258209229e-03) (405, 5, 9.99999977648258209229e-03) (405, 5, 9.99999977648258209229e-03) (405, 5, 9.99999977648258209229e-03) (405, 5, 9.99999977648258209229e-03) (405, 5, 9.99999977648258209229e-03) (405, 5, 9.99999977648258209229e-03) (405, 5, 9.99999977648258209229e-03) (405, 5, 9.99999977648258209229e-03) (405, 5, 9.99999977648258209229e-03) (405, 5, 9.99999977648258209229e-03) (405, 5, 9.99999977648258209229e-03) (405, 5, 9.99999977648258209229e-03) (405, 5, 9.99999977648258209229e-03) (405, 5, 9.99999977648258209229e-03) (405, 5, 9.99999977648258209229e-03) (405, 5, 9.99999977648258209229e-03) (405, 5, 9.99999977648258209229e-03) (405, 5, 9.99999977648258209229e-03) (405, 5, 9.99999977648258209229e-03) (405, 5, 9.99999977648258209229e-03) (405, 5, 9.99999977648258209229e-03) (405, 5, 9.99999977648258209229e-03) (405, 5, 9.99999977648258209229e-03) (405, 5, 9.99999977648258209229e-03) (405, 5, 9.99999977648258209229e-03) (405, 5, 9.99999977648258209229e-03) (405, 5, 9.99999977648258209229e-03) (405, 5, 9.99999977648258209229e-03) (405, 5, 9.99999977648258209229e-03) (0, 0, 0.00000000000000000000e+00) 
connections (connected_to_neuron, weight)=(0, 6.73265686035156250000e+01) (1, 3.00215930938720703125e+01) (2, -2.05564010620117187500e+02) (3, -1.94345798492431640625e+01) (0, 2.09148240089416503906e+00) (1, -2.08829498291015625000e+00) (2, 1.07200956344604492188e+00) (3, 4.61847972869873046875e+00) (0, -5.43755435943603515625e+00) (1, -2.93148636817932128906e+00) (2, -5.46133756637573242188e-01) (3, 6.54151687622070312500e+01) (0, -9.06180667877197265625e+00) (1, -4.24743145704269409180e-01) (2, -4.50454264879226684570e-01) (3, 5.06002998352050781250e+00) (0, -2.13821151733398437500e+02) (1, 1.53832511901855468750e+01) (2, -2.70313239097595214844e+00) (3, -1.72149429321289062500e+02) (0, 1.12272806167602539062e+01) (1, 5.26047289371490478516e-01) (2, -9.21873331069946289062e-01) (3, -2.21160626411437988281e+00) (0, 1.67563827514648437500e+02) (1, -9.53009605407714843750e+00) (2, -1.19234352111816406250e+01) (3, 2.57165466308593750000e+02) (0, 9.68292331695556640625e+00) (1, -5.51150798797607421875e-01) (2, 9.38202559947967529297e-01) (3, -3.16880434751510620117e-01) (0, 1.37054321289062500000e+02) (1, 9.26248931884765625000e+00) (2, -1.65008087158203125000e+02) (3, 1.56542404174804687500e+02) (0, -7.88662862777709960938e+00) (1, -2.02731204032897949219e+00) (2, 1.08498275279998779297e+00) (3, 1.66328067779541015625e+01) (0, -7.48730278015136718750e+00) (1, 4.58991557359695434570e-01) (2, 8.12399506568908691406e-01) (3, -4.49565219879150390625e+00) (0, 5.97595329284667968750e+01) (1, 8.05905151367187500000e+00) (2, -2.65948925018310546875e+01) (3, 5.09617881774902343750e+01) (0, 8.12698650360107421875e+00) (1, -4.68774050474166870117e-01) (2, -8.36371660232543945312e-01) (3, 4.76556730270385742188e+00) (0, -3.69964370727539062500e+01) (1, -1.39893751144409179688e+01) (2, 1.99267959594726562500e+02) (3, -5.80990753173828125000e+01) (0, 5.95506811141967773438e+00) (1, 1.97198629379272460938e+00) (2, -1.16552877426147460938e+00) (3, -8.04016590118408203125e+00) (0, 2.14798760414123535156e+00) (1, -4.55219596624374389648e-01) (2, -7.23590433597564697266e-01) (3, 5.24570417404174804688e+00) (0, -4.01654853820800781250e+01) (1, -9.21438097953796386719e-01) (2, -1.81707382202148437500e+01) (3, 6.14120101928710937500e+01) (0, -9.06546974182128906250e+00) (1, -5.56364774703979492188e-01) (2, 1.82465207576751708984e+00) (3, 5.49931669235229492188e+00) (0, 6.12206611633300781250e+01) (1, -2.05116596221923828125e+01) (2, 1.83334655761718750000e+02) (3, 6.85113382339477539062e+00) (0, -4.15208148956298828125e+00) (1, -6.77786886692047119141e-01) (2, 3.83158254623413085938e+00) (3, -6.03583574295043945312e+00) (0, 3.97457397460937500000e+02) (1, -8.58706855773925781250e+00) (2, -7.65622258186340332031e-01) (3, 5.68193855285644531250e+01) (0, -1.90597801208496093750e+01) (1, 4.68705177307128906250e-01) (2, 1.05143642425537109375e+00) (3, -4.48794364929199218750e+00) (0, 1.57641357421875000000e+02) (1, -1.70729351043701171875e+01) (2, 1.17604118347167968750e+02) (3, -2.80478820800781250000e+01) (0, 2.98468798398971557617e-01) (1, -4.55161541700363159180e-01) (2, -6.94765985012054443359e-01) (3, 5.48501062393188476562e+00) (0, 8.52641010284423828125e+00) (1, 5.27852535247802734375e-01) (2, -9.24978137016296386719e-01) (3, -6.75871789455413818359e-01) (0, 2.89936804771423339844e+00) (1, -6.94898664951324462891e-01) (2, 3.61810326576232910156e+00) (3, -2.13995628356933593750e+01) (0, -7.14237117767333984375e+00) (1, -5.53108096122741699219e-01) (2, 9.11110997200012207031e-01) (3, 1.43307936191558837891e+00) (0, -1.05716085433959960938e+01) (1, 8.03817868232727050781e-01) (2, -3.33940100669860839844e+00) (3, 1.32051048278808593750e+01) (0, -7.51690444946289062500e+01) (1, -1.30321369171142578125e+01) (2, 1.28600239753723144531e-01) (3, 2.68486297607421875000e+02) (0, -6.64659881591796875000e+01) (1, 7.37431478500366210938e+00) (2, -6.16754493713378906250e+01) (3, -1.57206924438476562500e+02) (0, 6.08169126510620117188e+00) (1, 5.82924425601959228516e-01) (2, -8.84996891021728515625e-01) (3, -1.45330154895782470703e+00) (0, -7.49717187881469726562e+00) (1, -5.89602291584014892578e-01) (2, 9.03578221797943115234e-01) (3, 1.84332168102264404297e+00) (0, 6.46163864135742187500e+01) (1, -2.80879092216491699219e+00) (2, -2.05480408668518066406e+00) (3, 8.33411102294921875000e+01) (0, -9.21768093109130859375e+00) (1, 4.80405598878860473633e-01) (2, 8.51758956909179687500e-01) (3, -5.03604030609130859375e+00) (0, -1.72914600372314453125e+01) (1, 4.93406504392623901367e-01) (2, 9.88466203212738037109e-01) (3, -4.69180870056152343750e+00) (0, -1.38253307342529296875e+01) (1, 4.89384174346923828125e-01) (2, 9.30671393871307373047e-01) (3, -5.10302782058715820312e+00) (0, 1.99539070129394531250e+01) (1, -4.74594652652740478516e-01) (2, -1.03913593292236328125e+00) (3, 4.43555498123168945312e+00) (0, 8.49020614624023437500e+01) (1, -4.00445842742919921875e+00) (2, 5.52720832824707031250e+00) (3, 5.35039138793945312500e+01) (0, 8.17756366729736328125e+00) (1, 3.64248204231262207031e+00) (2, 5.89667463302612304688e+00) (3, -2.65186271667480468750e+01) (0, 6.96260976791381835938e+00) (1, 5.31247317790985107422e-01) (2, -8.75537633895874023438e-01) (3, -2.06243801116943359375e+00) (0, -5.36820650100708007812e+00) (1, 6.32974147796630859375e-01) (2, -6.45588874816894531250e-01) (3, 4.31420028209686279297e-01) (0, 2.25237083435058593750e+01) (1, 6.45471191406250000000e+01) (2, -1.25729354858398437500e+02) (3, -3.39218826293945312500e+01) (0, 1.05090608596801757812e+01) (1, -4.74569469690322875977e-01) (2, -8.76230359077453613281e-01) (3, 4.55307054519653320312e+00) (0, -8.12209033966064453125e+00) (1, 6.46911442279815673828e-01) (2, -5.71771025657653808594e-01) (3, 8.92215549945831298828e-01) (0, -1.25229053497314453125e+01) (1, 2.18739080429077148438e+00) (2, -1.00119805335998535156e+00) (3, -5.06603240966796875000e+00) (0, -2.58245544433593750000e+01) (1, 4.58135396242141723633e-01) (2, 1.05188024044036865234e+00) (3, -3.03850722312927246094e+00) (0, -1.40702402591705322266e+00) (1, 2.56595802307128906250e+00) (2, 2.69233632087707519531e+00) (3, -1.23840541839599609375e+01) (0, 1.86129131317138671875e+01) (1, -4.85943675041198730469e-01) (2, 1.15334677696228027344e+00) (3, -1.74568176269531250000e+00) (0, 2.60761280059814453125e+01) (1, -1.14472544193267822266e+00) (2, 8.30045413970947265625e+00) (3, -2.80349755287170410156e+00) (0, -2.78500728607177734375e+01) (1, -2.48280119895935058594e+00) (2, 2.89593791961669921875e+00) (3, 2.04121952056884765625e+01) (0, 5.28119325637817382812e+00) (1, 5.50315141677856445312e-01) (2, -8.75575244426727294922e-01) (3, 5.87315201759338378906e-01) (0, -3.04962992668151855469e+00) (1, 6.21199846267700195312e-01) (2, -7.10761547088623046875e-01) (3, 4.09345895051956176758e-01) (0, 2.09499855041503906250e+01) (1, -5.33490598201751708984e-01) (2, 1.31304371356964111328e+00) (3, -9.52694952487945556641e-01) (0, 1.52948827743530273438e+01) (1, -4.72353905439376831055e-01) (2, -9.36617732048034667969e-01) (3, 4.46528482437133789062e+00) (0, -3.37193603515625000000e+01) (1, 6.86215877532958984375e+00) (2, -7.46953630447387695312e+00) (3, -7.71290159225463867188e+00) (0, -5.90438461303710937500e+00) (1, -4.32663023471832275391e-01) (2, -4.98919218778610229492e-01) (3, 5.54470634460449218750e+00) (0, 1.76785831451416015625e+01) (1, 1.24273335933685302734e+00) (2, -2.27684855461120605469e+00) (3, -1.91563332080841064453e+00) (0, 1.08124343872070312500e+02) (1, 2.29070510864257812500e+01) (2, -1.35340662002563476562e+01) (3, -1.78256561279296875000e+02) (0, -7.67080764770507812500e+01) (1, -4.87382736206054687500e+01) (2, 1.36609786987304687500e+02) (3, 6.92861404418945312500e+01) (0, 1.75929605960845947266e+00) (1, 2.05030918121337890625e+00) (2, -1.06234860420227050781e+00) (3, -1.26007413864135742188e+01) (0, 7.54903411865234375000e+00) (1, 2.68739819526672363281e+00) (2, -6.66234016418457031250e+00) (3, -5.19709944725036621094e-01) (0, -1.17547788619995117188e+01) (1, -5.70367515087127685547e-01) (2, 9.35573101043701171875e-01) (3, 2.59509587287902832031e+00) (0, 9.90847873687744140625e+00) (1, 1.72233179211616516113e-01) (2, -7.39109086990356445312e+00) (3, 8.95559978485107421875e+00) (0, -1.02725648880004882812e+01) (1, -1.96963500976562500000e+00) (2, 1.23250341415405273438e+00) (3, 5.84982204437255859375e+00) (0, -4.66353416442871093750e+01) (1, -3.06744694709777832031e+00) (2, 3.66044044494628906250e+00) (3, 4.48925399780273437500e+01) (0, -2.99679698944091796875e+01) (1, 6.75045609474182128906e-01) (2, -2.23365235328674316406e+00) (3, 2.78244733810424804688e+00) (0, -1.03930635452270507812e+01) (1, 5.96503019332885742188e-01) (2, -7.59604930877685546875e-01) (3, 1.04345667362213134766e+00) (0, -7.69950485229492187500e+01) (1, 5.52344036102294921875e+00) (2, -7.80988979339599609375e+00) (3, 9.33862686157226562500e-01) (0, -8.50987136363983154297e-01) (1, 5.79825162887573242188e-01) (2, -7.23537266254425048828e-01) (3, 1.51817649602890014648e-01) (0, 1.92376499176025390625e+01) (1, 1.68597400188446044922e+00) (2, 7.20513296127319335938e+00) (3, -7.48181076049804687500e+01) (0, 1.48210401535034179688e+01) (1, -4.64821785688400268555e-01) (2, -9.76820170879364013672e-01) (3, 4.32619762420654296875e+00) (0, 8.32640171051025390625e+00) (1, 2.74600648880004882812e+00) (2, -3.49782514572143554688e+00) (3, -2.00072841644287109375e+01) (0, -3.05022869110107421875e+01) (1, -3.15837311744689941406e+00) (2, 1.21868300437927246094e+00) (3, 2.13309841156005859375e+01) (0, -2.48497056961059570312e+00) (1, 5.23805847167968750000e+01) (2, -6.10128517150878906250e+01) (3, -6.06425247192382812500e+01) (0, 1.51813297271728515625e+01) (1, -8.35177600383758544922e-01) (2, 3.21271347999572753906e+00) (3, -1.16283845901489257812e+01) (0, 1.13659505844116210938e+01) (1, 2.54880237579345703125e+00) (2, -6.37639284133911132812e+00) (3, -7.96753358840942382812e+00) (0, -1.31261730194091796875e+01) (1, -5.57831227779388427734e-01) (2, 9.44424450397491455078e-01) (3, 2.77254915237426757812e+00) (0, 1.70448516845703125000e+02) (1, 9.20253157615661621094e-01) (2, -1.81877021789550781250e+01) (3, 7.90775070190429687500e+01) (0, -2.49029979705810546875e+01) (1, -3.07767629623413085938e+00) (2, -5.52678108215332031250e-01) (3, 8.07583084106445312500e+01) (0, 9.97814559936523437500e+00) (1, 4.21843349933624267578e-01) (2, 4.10806238651275634766e-01) (3, -4.96702480316162109375e+00) (0, 1.58818912506103515625e+00) (1, -6.14624738693237304688e-01) (2, 7.57439792156219482422e-01) (3, 1.51023790240287780762e-01) (0, 5.02420425415039062500e+00) (1, -6.45856440067291259766e-01) (2, 3.68413895368576049805e-01) (3, -1.63902580738067626953e+00) (0, 8.59161615371704101562e-02) (1, -6.01999759674072265625e-01) (2, 7.81430184841156005859e-01) (3, 2.41418629884719848633e-01) (0, 5.57188529968261718750e+01) (1, -1.45627841949462890625e+01) (2, 1.09779615402221679688e+01) (3, 1.28196655273437500000e+02) (0, 2.55655694007873535156e+00) (1, -1.29230260848999023438e+00) (2, 9.30109024047851562500e+00) (3, -6.29712438583374023438e+00) (0, -4.38725233078002929688e+00) (1, -5.58220863342285156250e-01) (2, 8.89999330043792724609e-01) (3, 7.83609867095947265625e-01) (0, -2.55864677429199218750e+01) (1, 5.58073163032531738281e-01) (2, -1.72317600250244140625e+00) (3, 2.35445284843444824219e+00) (0, 2.40854859352111816406e+00) (1, 5.80584883689880371094e-01) (2, -8.06856632232666015625e-01) (3, -1.06307256221771240234e+00) (0, -2.27568931579589843750e+01) (1, -6.00256145000457763672e-01) (2, 9.42588508129119873047e-01) (3, -7.03353106975555419922e-01) (0, 1.09508323669433593750e+00) (1, 3.26866722106933593750e+00) (2, -7.73391389846801757812e+00) (3, 5.09508705139160156250e+00) (0, 1.07015171051025390625e+01) (1, -6.58523559570312500000e-01) (2, 2.54451185464859008789e-01) (3, -1.42701172828674316406e+00) (0, 1.42406600952148437500e+02) (1, -3.22966651916503906250e+01) (2, 4.26275711059570312500e+01) (3, 1.03874343872070312500e+02) (0, -2.43935279846191406250e+01) (1, 5.39418280124664306641e-01) (2, -1.57876443862915039062e+00) (3, 1.99919557571411132812e+00) (0, 7.36730117797851562500e+01) (1, 1.02657737731933593750e+01) (2, -7.12474517822265625000e+01) (3, 2.75048618316650390625e+01) (0, 1.32045316696166992188e+01) (1, -5.80572068691253662109e-01) (2, 8.68419170379638671875e-01) (3, -1.23417520523071289062e+00) (0, 1.29369246959686279297e+00) (1, -7.92811572551727294922e-01) (2, 3.49161481857299804688e+00) (3, 1.78395521640777587891e+00) (0, 2.69146293401718139648e-01) (1, -2.86122107505798339844e+00) (2, -1.45140898227691650391e+00) (3, 2.15176086425781250000e+01) (0, -1.35175228118896484375e+01) (1, 4.68656867742538452148e-01) (2, 9.24304962158203125000e-01) (3, -4.58147001266479492188e+00) (0, 5.97766494750976562500e+01) (1, 4.12724151611328125000e+01) (2, -7.41931762695312500000e+01) (3, 1.87664051055908203125e+01) (0, 3.18562183380126953125e+01) (1, -5.44795840978622436523e-02) (2, 4.41715419292449951172e-01) (3, -5.40943193435668945312e+00) (0, 4.86810016632080078125e+00) (1, -6.12127423286437988281e-01) (2, 6.79678857326507568359e-01) (3, -1.60005629062652587891e-01) (0, -5.09207820892333984375e+00) (1, 4.58304166793823242188e-01) (2, 7.76585638523101806641e-01) (3, -4.55669116973876953125e+00) (0, -2.32292251586914062500e+01) (1, 4.92381840944290161133e-01) (2, 9.77566838264465332031e-01) (3, -2.60953783988952636719e+00) (0, 1.41214239597320556641e+00) (1, 2.96721744537353515625e+00) (2, 9.66013967990875244141e-01) (3, -2.41202011108398437500e+01) (0, 6.62705612182617187500e+00) (1, 4.24363404512405395508e-01) (2, 4.90199834108352661133e-01) (3, -5.31746053695678710938e+00) (0, -5.18274211883544921875e+00) (1, -4.33273267745971679688e+00) (2, 2.37909908294677734375e+01) (3, -1.91218328475952148438e+00) (0, -1.57612695693969726562e+01) (1, 5.38163065910339355469e-01) (2, -1.08169877529144287109e+00) (3, 1.61506581306457519531e+00) (0, -1.75238037109375000000e+00) (1, -3.00390768051147460938e+00) (2, -1.00842416286468505859e+00) (3, 2.49517726898193359375e+01) (0, 1.81023681640625000000e+02) (1, 5.83444747924804687500e+01) (2, -4.61236877441406250000e+01) (3, -2.71003875732421875000e+01) (0, -2.56999084472656250000e+02) (1, 5.23313283920288085938e+00) (2, 2.79108314514160156250e+01) (3, -2.63575134277343750000e+01) (0, -8.37947082519531250000e+00) (1, 4.70931231975555419922e-01) (2, 8.53758096694946289062e-01) (3, -4.91314888000488281250e+00) (0, -1.40294766426086425781e+00) (1, -8.04174423217773437500e-01) (2, 3.49594497680664062500e+00) (3, 3.45325529575347900391e-01) (0, 2.15143890380859375000e+01) (1, 6.87597468495368957520e-02) (2, -7.52286052703857421875e+00) (3, 1.13619766235351562500e+01) (0, -3.12428712844848632812e+00) (1, 4.56148624420166015625e-01) (2, 7.38234937191009521484e-01) (3, -5.15914916992187500000e+00) (0, -2.29379158020019531250e+01) (1, 2.24426761269569396973e-01) (2, -7.67190814018249511719e-01) (3, 5.69650459289550781250e+00) (0, -1.34612092971801757812e+01) (1, -1.39602199196815490723e-01) (2, 7.48466491699218750000e+00) (3, -1.09873104095458984375e+01) (0, 1.47896636962890625000e+02) (1, 1.17988948822021484375e+01) (2, -1.81034355163574218750e+01) (3, -7.26873779296875000000e+01) (0, 5.62002706527709960938e+00) (1, -4.82851237058639526367e-01) (2, -8.20162653923034667969e-01) (3, 5.64653015136718750000e+00) (0, -2.96873068809509277344e+00) (1, -2.00795149803161621094e+00) (2, 1.12411499023437500000e+00) (3, 7.82691907882690429688e+00) (0, -5.91318273544311523438e+00) (1, 6.20537877082824707031e-01) (2, -5.62060415744781494141e-01) (3, 5.70603549480438232422e-01) (0, 1.39319562911987304688e+00) (1, -4.53778773546218872070e-01) (2, -7.01665639877319335938e-01) (3, 5.27913236618041992188e+00) (0, 9.18050193786621093750e+00) (1, 5.57367026805877685547e-01) (2, -9.13614392280578613281e-01) (3, -2.36910009384155273438e+00) (0, -1.36485595703125000000e+02) (1, -7.73563480377197265625e+00) (2, 8.78019790649414062500e+01) (3, -2.19841499328613281250e+01) (0, 4.76674509048461914062e+00) (1, -6.06980979442596435547e-01) (2, 6.23676180839538574219e-01) (3, 1.85511618852615356445e-01) (0, 1.17112449645996093750e+02) (1, -5.72247266769409179688e+00) (2, 7.71352767944335937500e+01) (3, -1.21708045959472656250e+02) (0, 2.16063804626464843750e+01) (1, 2.73898386955261230469e+00) (2, -6.83023929595947265625e+00) (3, 7.59469792246818542480e-02) (0, 3.57739710807800292969e+00) (1, -2.20684480667114257812e+00) (2, 1.11031317710876464844e+00) (3, 2.06896820068359375000e+01) (0, -1.94986610412597656250e+01) (1, -4.35111463069915771484e-01) (2, -6.83006867766380310059e-02) (3, 6.65596008300781250000e+00) (0, -2.56814117431640625000e+01) (1, 6.47968769073486328125e+00) (2, -7.56866121292114257812e+00) (3, 2.44510841369628906250e+01) (0, -2.02032814025878906250e+01) (1, 4.89028185606002807617e-01) (2, 1.04333221912384033203e+00) (3, -5.11577939987182617188e+00) (0, -1.02947425842285156250e+01) (1, 5.63414931297302246094e-01) (2, -8.75427424907684326172e-01) (3, 7.45392858982086181641e-01) (0, -2.86195778846740722656e+00) (1, -6.52883350849151611328e-01) (2, 4.04146003723144531250e+00) (3, -4.94262504577636718750e+00) (0, -1.02054719924926757812e+01) (1, -5.28909504413604736328e-01) (2, 3.56432580947875976562e+00) (3, -1.40838003158569335938e+01) (0, 1.30080356597900390625e+01) (1, -4.68607008457183837891e-01) (2, -9.08799290657043457031e-01) (3, 4.39767837524414062500e+00) (0, 6.42071075439453125000e+01) (1, -8.01251411437988281250e+00) (2, 2.50779857635498046875e+01) (3, 9.61396789550781250000e+01) (0, -3.17224960327148437500e+01) (1, -3.72573643922805786133e-01) (2, 9.42874193191528320312e-01) (3, -1.16691756248474121094e+00) (0, -7.05964565277099609375e+00) (1, -5.22619247436523437500e-01) (2, 9.02176558971405029297e-01) (3, 1.07726824283599853516e+00) (0, -6.37730455398559570312e+00) (1, 4.68396127223968505859e-01) (2, 8.04356455802917480469e-01) (3, -5.05627918243408203125e+00) (0, 2.12283458709716796875e+01) (1, 5.67121684551239013672e-01) (2, -1.06260573863983154297e+00) (3, -3.11782646179199218750e+00) (0, -1.62721884250640869141e+00) (1, -4.37934488058090209961e-01) (2, -6.47752642631530761719e-01) (3, 5.30507659912109375000e+00) (0, -2.80048522949218750000e+01) (1, 3.44658106565475463867e-01) (2, 1.03080499172210693359e+00) (3, -1.96868169307708740234e+00) (0, 1.87302185058593750000e+02) (1, -4.83141136169433593750e+01) (2, 3.65462417602539062500e+01) (3, 1.67454055786132812500e+02) (0, 1.51285052299499511719e-01) (1, -5.81637024879455566406e-01) (2, 7.66721785068511962891e-01) (3, 7.12261676788330078125e-01) (0, 5.28950929641723632812e+00) (1, -5.02216453552246093750e+01) (2, 2.34049472808837890625e+01) (3, 1.65175979614257812500e+02) (0, -3.22729377746582031250e+01) (1, -2.99936562776565551758e-01) (2, 1.02386558055877685547e+00) (3, 1.45693051815032958984e+00) (0, -5.00825643539428710938e+00) (1, -4.31091964244842529297e-01) (2, -5.60487091541290283203e-01) (3, 5.51007509231567382812e+00) (0, 1.20271282196044921875e+01) (1, -4.70562934875488281250e-01) (2, -8.95114839076995849609e-01) (3, 5.00805282592773437500e+00) (0, -4.51626367866992950439e-02) (1, -5.78862309455871582031e-01) (2, 8.30962598323822021484e-01) (3, 4.21783030033111572266e-01) (0, 2.03401870727539062500e+02) (1, -6.65677738189697265625e+00) (2, 3.37753028869628906250e+01) (3, -4.65568313598632812500e+01) (0, 1.05476207733154296875e+01) (1, 4.31820005178451538086e-01) (2, 3.70388239622116088867e-01) (3, -5.94453334808349609375e+00) (0, 7.12423419952392578125e+00) (1, 6.27857983112335205078e-01) (2, -8.71524512767791748047e-01) (3, -1.87055647373199462891e+00) (0, 2.28180122375488281250e+00) (1, -4.96815234422683715820e-01) (2, 9.66987252235412597656e-01) (3, 1.18145394325256347656e+00) (0, -2.35529193878173828125e+01) (1, -2.32921767234802246094e+00) (2, 1.63495886325836181641e+00) (3, 1.65590114593505859375e+01) (0, 1.35142621994018554688e+01) (1, 8.76290857791900634766e-01) (2, 5.89076614379882812500e+00) (3, -3.08076686859130859375e+01) (0, -2.18985061645507812500e+02) (1, -1.81327457427978515625e+01) (2, 7.83624038696289062500e+01) (3, -3.35148501396179199219e+00) (0, 6.37713384628295898438e+00) (1, 8.20547223091125488281e-01) (2, -3.44375467300415039062e+00) (3, -1.03925251960754394531e+00) (0, 1.51076660156250000000e+01) (1, -4.93090718984603881836e-01) (2, -9.56112802028656005859e-01) (3, 4.99741125106811523438e+00) (0, -1.78849849700927734375e+01) (1, -4.67873990535736083984e-01) (2, -8.57201665639877319336e-02) (3, 6.20110940933227539062e+00) (0, -2.95282292366027832031e+00) (1, -5.01373231410980224609e-01) (2, 1.56501412391662597656e+00) (3, 4.77583599090576171875e+00) (0, 1.75862617492675781250e+01) (1, 5.55353581905364990234e-01) (2, -1.01614975929260253906e+00) (3, -1.75980418920516967773e-01) (0, -1.50512766838073730469e+00) (1, -5.71909248828887939453e-01) (2, 7.91691660881042480469e-01) (3, 1.66082113981246948242e-01) (0, -5.87449836730957031250e+00) (1, 7.68109798431396484375e-01) (2, -3.46727991104125976562e+00) (3, 1.54705820083618164062e+01) (0, -1.36212310791015625000e+02) (1, -2.02507567405700683594e+00) (2, 7.51570968627929687500e+01) (3, -1.13028434753417968750e+02) (0, -1.58347568511962890625e+01) (1, -3.15274268388748168945e-01) (2, -4.60982888936996459961e-01) (3, 3.29841399192810058594e+00) (0, -4.20707035064697265625e+00) (1, 4.67443108558654785156e-01) (2, 7.80602216720581054688e-01) (3, -5.06966257095336914062e+00) (0, -5.41921079158782958984e-01) (1, -8.14307632446289062500e+01) (2, 1.16604217529296875000e+02) (3, 4.26198577880859375000e+01) (0, 7.46410522460937500000e+01) (1, -1.04493812561035156250e+02) (2, -2.54574337005615234375e+01) (3, 1.35853973388671875000e+02) (0, -7.41642141342163085938e+00) (1, -5.44045162200927734375e+00) (2, 1.83788931369781494141e+00) (3, 2.56798267364501953125e+01) (0, -2.48438079833984375000e+02) (1, 4.09493589401245117188e+00) (2, 6.05214157104492187500e+01) (3, -1.40595901489257812500e+02) (0, -1.54620015621185302734e+00) (1, 2.90602231025695800781e+00) (2, 6.65526390075683593750e-01) (3, -6.69410247802734375000e+01) (0, -9.35879898071289062500e+00) (1, 4.68325316905975341797e-01) (2, 8.64769816398620605469e-01) (3, -4.67411231994628906250e+00) (0, -8.26951408386230468750e+00) (1, 5.83488130569458007812e+00) (2, -1.85259187221527099609e+00) (3, -2.88153038024902343750e+01) (0, 4.56407308578491210938e+00) (1, 4.28139239549636840820e-01) (2, 5.58116793632507324219e-01) (3, -5.16759490966796875000e+00) (0, -5.82018566131591796875e+00) (1, 6.21040642261505126953e-01) (2, -6.48740947246551513672e-01) (3, 7.83283486962318420410e-02) (0, -5.72392368316650390625e+00) (1, -4.28788781166076660156e-01) (2, -5.54086029529571533203e-01) (3, 5.22364282608032226562e+00) (0, -1.79675827026367187500e+01) (1, 2.40913137793540954590e-01) (2, -6.91743564605712890625e+00) (3, 1.33138847351074218750e+01) (0, -7.69611597061157226562e+00) (1, -5.11657774448394775391e-01) (2, 9.24425125122070312500e-01) (3, 1.69231045246124267578e+00) (0, 1.86669540405273437500e+02) (1, -2.82436904907226562500e+01) (2, 3.03546810150146484375e+00) (3, 1.84184295654296875000e+02) (0, -1.61972560882568359375e+01) (1, -1.49344193935394287109e+00) (2, -1.54887998104095458984e+00) (3, 2.24882340431213378906e+00) (0, -1.21094408035278320312e+01) (1, 4.64732557535171508789e-01) (2, 9.03418898582458496094e-01) (3, -4.63438034057617187500e+00) (0, -9.49260616302490234375e+00) (1, 6.60404324531555175781e-01) (2, -2.84952819347381591797e-01) (3, 1.29390335083007812500e+00) (0, -2.74317598342895507812e+00) (1, 6.32266938686370849609e-01) (2, -6.63541316986083984375e-01) (3, 2.80200958251953125000e-01) (0, 3.48989639282226562500e+01) (1, -1.21696782112121582031e+00) (2, 8.36083698272705078125e+00) (3, -1.78300552368164062500e+01) (0, -6.67180657386779785156e-01) (1, 5.80461919307708740234e-01) (2, -7.32728421688079833984e-01) (3, 3.51669430732727050781e-01) (0, -1.12332191467285156250e+01) (1, 6.50778651237487792969e-01) (2, -4.31367993354797363281e-01) (3, 1.42762017250061035156e+00) (0, 1.55109615325927734375e+01) (1, 5.49445509910583496094e-01) (2, -1.00631332397460937500e+00) (3, -3.07447701692581176758e-01) (0, -2.32930030822753906250e+01) (1, -5.50167798995971679688e-01) (2, -8.67796859741210937500e+01) (3, 4.30163574218750000000e+01) (0, 5.00374412536621093750e+00) (1, -6.10289812088012695312e-01) (2, 6.15075528621673583984e-01) (3, -1.81045681238174438477e-01) (0, -9.48167705535888671875e+00) (1, -1.45302543640136718750e+01) (2, 2.76391124725341796875e+01) (3, 1.81632644653320312500e+02) (0, 1.07206459045410156250e+01) (1, 7.65105426311492919922e-01) (2, -3.72767043113708496094e+00) (3, -4.36648559570312500000e+00) (0, -3.60011024475097656250e+01) (1, 4.70936584472656250000e+00) (2, -4.78059148788452148438e+00) (3, -8.58842372894287109375e-01) (0, -2.21143035888671875000e+01) (1, -6.07374787330627441406e-01) (2, 9.03606176376342773438e-01) (3, -4.82409030199050903320e-01) (0, -1.87479877471923828125e+01) (1, 8.56724660843610763550e-03) (2, -6.64920330047607421875e+00) (3, 1.91337947845458984375e+01) (0, 2.41714916229248046875e+01) (1, -4.94855701923370361328e-01) (2, -1.06237423419952392578e+00) (3, 3.93354654312133789062e+00) (0, 3.31499278545379638672e-01) (1, -4.44079428911209106445e-01) (2, -6.72789692878723144531e-01) (3, 5.09424877166748046875e+00) (0, 7.06656742095947265625e+00) (1, 5.84744751453399658203e-01) (2, -8.92423629760742187500e-01) (3, -2.41531300544738769531e+00) (0, 2.63221797943115234375e+01) (1, 6.82127654552459716797e-01) (2, -1.09888541698455810547e+00) (3, -2.37614154815673828125e+00) (0, -5.71693468093872070312e+00) (1, 4.65892255306243896484e-01) (2, 7.86021530628204345703e-01) (3, -4.96936416625976562500e+00) (0, -4.51626968383789062500e+00) (1, -5.54451644420623779297e-01) (2, 8.89625549316406250000e-01) (3, 9.89159464836120605469e-01) (0, 1.11069084167480468750e+02) (1, -2.60245513916015625000e+00) (2, 5.03731307983398437500e+01) (3, -2.08612777709960937500e+02) (0, 1.31214637756347656250e+01) (1, -5.77694416046142578125e-01) (2, 8.97557616233825683594e-01) (3, -9.48902785778045654297e-01) (0, -2.08751010894775390625e+01) (1, -5.29002523422241210938e+00) (2, 2.61422848701477050781e+00) (3, 5.43607597351074218750e+01) (0, -2.29618396759033203125e+01) (1, -2.06243538856506347656e+00) (2, 1.50074887275695800781e+00) (3, 1.45934972763061523438e+01) (0, -4.53392124176025390625e+00) (1, 6.32736802101135253906e-01) (2, -7.00114309787750244141e-01) (3, 4.80984687805175781250e-01) (0, -1.93310832977294921875e+01) (1, -1.97845017910003662109e+00) (2, 1.22305452823638916016e+00) (3, 1.70251045227050781250e+01) (0, 1.87818355560302734375e+01) (1, -4.57392513751983642578e-01) (2, 1.12338304519653320312e+00) (3, -2.63698363304138183594e+00) (0, 7.86747360229492187500e+00) (1, -6.40932023525238037109e-01) (2, 4.00128275156021118164e-01) (3, -1.22979915142059326172e+00) (0, 4.25283145904541015625e+00) (1, 4.34405058622360229492e-01) (2, 6.10605299472808837891e-01) (3, -5.76634025573730468750e+00) (0, -1.27085952758789062500e+01) (1, 4.74777162075042724609e-01) (2, 9.60838973522186279297e-01) (3, -5.37123537063598632812e+00) (0, -3.29678606986999511719e+00) (1, -6.27644240856170654297e-01) (2, 3.74575185775756835938e+00) (3, -1.06902313232421875000e+01) (0, -9.20104980468750000000e+00) (1, 4.65313017368316650391e-01) (2, 8.44951331615447998047e-01) (3, -4.43180894851684570312e+00) (0, 1.43993082046508789062e+01) (1, 3.26558613777160644531e+00) (2, -1.14884891510009765625e+01) (3, -3.04059734344482421875e+01) (0, -1.86455734252929687500e+02) (1, -2.11838321685791015625e+01) (2, 4.71276473999023437500e+01) (3, -6.58098068237304687500e+01) (0, 9.56891632080078125000e+00) (1, 5.37307858467102050781e-01) (2, -9.09121036529541015625e-01) (3, -2.36828255653381347656e+00) (0, 1.44809074401855468750e+01) (1, -6.43510222434997558594e-01) (2, 5.71645140647888183594e-01) (3, -1.59430241584777832031e+00) (0, -3.35581731796264648438e+00) (1, 6.27657294273376464844e-01) (2, -5.28622806072235107422e-01) (3, 4.26429845392704010010e-02) (0, -2.41471099853515625000e+01) (1, 6.68343782424926757812e+00) (2, -3.72820806503295898438e+00) (3, -5.96253738403320312500e+01) (0, -1.05885101318359375000e+02) (1, -1.38921270370483398438e+01) (2, 5.92071228027343750000e+01) (3, 2.09168777465820312500e+02) (0, 4.67903470993041992188e+00) (1, -6.16994559764862060547e-01) (2, 5.57300746440887451172e-01) (3, -7.94951379299163818359e-01) (0, 1.04669885635375976562e+01) (1, 4.63927745819091796875e-01) (2, 6.94934502243995666504e-02) (3, -5.67587327957153320312e+00) (0, 1.60113677978515625000e+02) (1, -3.57824850082397460938e+00) (2, 8.19513473510742187500e+01) (3, -8.92819213867187500000e+01) (0, -6.16319370269775390625e+00) (1, 4.71009075641632080078e-01) (2, 8.03110957145690917969e-01) (3, -4.87027406692504882812e+00) (0, 5.98426914215087890625e+00) (1, -6.91435515880584716797e-01) (2, 3.74181866645812988281e+00) (3, -6.24443626403808593750e+00) (0, -2.46428680419921875000e+00) (1, 4.58761245012283325195e-01) (2, 7.30611145496368408203e-01) (3, -5.15153741836547851562e+00) (0, 1.97777156829833984375e+01) (1, 3.81937474012374877930e-01) (2, 1.89285919070243835449e-01) (3, -6.32634258270263671875e+00) (0, 3.01930665969848632812e+00) (1, -6.32373273372650146484e-01) (2, 4.92994189262390136719e-01) (3, -1.55677783489227294922e+00) (0, 1.02305870056152343750e+01) (1, 1.94858860969543457031e+00) (2, -1.14755320549011230469e+00) (3, -1.20228614807128906250e+01) (0, -1.67568378448486328125e+01) (1, 5.36346971988677978516e-01) (2, -9.67649281024932861328e-01) (3, 5.09451770782470703125e+00) (0, -7.05114059448242187500e+01) (1, -1.69107943773269653320e-01) (2, 8.04528808593750000000e+01) (3, -1.37958740234375000000e+02) (0, 1.35749313354492187500e+02) (1, 1.69842014312744140625e+01) (2, -2.88256669044494628906e+00) (3, -2.68900756835937500000e+02) (0, 3.92975854873657226562e+00) (1, 5.54389715194702148438e-01) (2, -8.45435142517089843750e-01) (3, -1.13551771640777587891e+00) (0, -1.01375961303710937500e+01) (1, -6.37467682361602783203e-01) (2, 3.87671756744384765625e+00) (3, -3.49394106864929199219e+00) (0, 2.88132801055908203125e+01) (1, -6.45609915256500244141e-01) (2, 2.01990890502929687500e+00) (3, -2.61093592643737792969e+00) (0, 1.21978797912597656250e+01) (1, 4.31287109851837158203e-01) (2, 3.62396299839019775391e-01) (3, -5.03120040893554687500e+00) (0, -1.12392539978027343750e+02) (1, -5.93312788009643554688e+00) (2, 8.08090209960937500000e+00) (3, -2.99870133399963378906e+00) (0, -1.23636684417724609375e+01) (1, 8.05769026279449462891e-01) (2, -3.11448979377746582031e+00) (3, -2.74684280157089233398e-01) (0, -1.25860023498535156250e+01) (1, -3.01439213752746582031e+00) (2, -4.23273891210556030273e-01) (3, 6.92377395629882812500e+01) (0, -6.89112472534179687500e+00) (1, 4.69542950391769409180e-01) (2, 8.09164106845855712891e-01) (3, -4.95542383193969726562e+00) (0, 2.77244701385498046875e+01) (1, 1.83400024414062500000e+02) (2, -3.52013435363769531250e+01) (3, -7.05287599563598632812e+00) (0, 2.81550064086914062500e+01) (1, -3.89612615108489990234e-01) (2, 1.03577995300292968750e+00) (3, -2.32171344757080078125e+00) (0, -1.10743403434753417969e+00) (1, -8.07261943817138671875e-01) (2, 3.53000354766845703125e+00) (3, 7.24083185195922851562e-01) (0, 1.77903995513916015625e+01) (1, -4.19433981180191040039e-01) (2, 8.50383460521697998047e-01) (3, -4.63512706756591796875e+00) (0, -8.64433288574218750000e+00) (1, 5.48773288726806640625e-01) (2, -9.23717021942138671875e-01) (3, 1.82001248002052307129e-01) (0, 3.91437911987304687500e+01) (1, -1.73127353191375732422e-01) (2, -1.09719324111938476562e+00) (3, 7.51950323581695556641e-01) (0, 5.79917097091674804688e+00) (1, -2.15727591514587402344e+00) (2, 1.02529788017272949219e+00) (3, 3.28972935676574707031e+00) (0, 1.77877197265625000000e+01) (1, -4.95253524780273437500e+01) (2, 2.03681747436523437500e+02) (3, 3.58324699401855468750e+01) (0, 1.20716218948364257812e+01) (1, -4.82881158590316772461e-01) (2, -9.19718861579895019531e-01) (3, 5.13428544998168945312e+00) (0, -5.87669801712036132812e+00) (1, -6.09627425670623779297e-01) (2, 3.60442996025085449219e+00) (3, -1.09506731033325195312e+01) (0, 7.58528566360473632812e+00) (1, -7.94817507266998291016e-01) (2, 3.44123387336730957031e+00) (3, -1.50031480789184570312e+01) (0, -3.95309948921203613281e+00) (1, -4.41974550485610961914e-01) (2, -6.27937614917755126953e-01) (3, 5.93647575378417968750e+00) (0, -1.64599132537841796875e+01) (1, 3.60954135656356811523e-01) (2, -7.33594131469726562500e+00) (3, 1.76512031555175781250e+01) (0, 1.52581810951232910156e+00) (1, 1.54438531398773193359e+00) (2, 7.00884294509887695312e+00) (3, -2.62480640411376953125e+01) (0, 7.50966787338256835938e+00) (1, 4.32011663913726806641e-01) (2, 4.52736586332321166992e-01) (3, -5.31986951828002929688e+00) (0, -3.42129945755004882812e+00) (1, -4.35989052057266235352e-01) (2, -6.10779047012329101562e-01) (3, 5.48406028747558593750e+00) (0, 1.78402976989746093750e+01) (1, 1.96055281162261962891e+00) (2, -1.23037016391754150391e+00) (3, -1.47211074829101562500e+01) (0, -8.47150993347167968750e+00) (1, -4.93656188249588012695e-01) (2, 9.10598874092102050781e-01) (3, 2.56952619552612304688e+00) (0, -1.64008834838867187500e+02) (1, 2.09761447906494140625e+01) (2, -8.05468139648437500000e+01) (3, -5.43487472534179687500e+01) (0, -1.25360040664672851562e+01) (1, -4.34995412826538085938e-01) (2, -2.86152571439743041992e-01) (3, 6.15102195739746093750e+00) (0, 2.25025234222412109375e+01) (1, 2.04196453094482421875e+00) (2, -1.46978998184204101562e+00) (3, -1.33485050201416015625e+01) (0, 1.13924913406372070312e+01) (1, 5.01045286655426025391e-01) (2, -9.16823387145996093750e-01) (3, -3.16904664039611816406e+00) (0, -9.42267131805419921875e+00) (1, -5.87101876735687255859e-01) (2, 4.19213676452636718750e+00) (3, -5.64900445938110351562e+00) (0, 1.26875734329223632812e+01) (1, 1.92021584510803222656e+00) (2, -1.17925393581390380859e+00) (3, -1.15673017501831054688e+01) (0, 2.33736738562583923340e-01) (1, 6.81149423122406005859e-01) (2, -3.62088179588317871094e+00) (3, 1.90141792297363281250e+01) (0, 4.21409111022949218750e+01) (1, -3.42117607593536376953e-01) (2, -1.22919917106628417969e+00) (3, 3.74163627624511718750e+00) (0, 3.09155416488647460938e+00) (1, 5.80547630786895751953e-01) (2, -8.70586216449737548828e-01) (3, -9.68868851661682128906e-01) (0, -1.17316923141479492188e+01) (1, 5.72304129600524902344e-01) (2, -8.80380570888519287109e-01) (3, 1.01702988147735595703e+00) (0, 1.21922836303710937500e+01) (1, -4.62716639041900634766e-01) (2, -8.81304144859313964844e-01) (3, 4.79428768157958984375e+00) (0, -9.87801551818847656250e+00) (1, 4.69386249780654907227e-01) (2, 8.57976019382476806641e-01) (3, -4.42334413528442382812e+00) (0, 6.41679573059082031250e+00) (1, -2.18657660484313964844e+00) (2, 1.02201282978057861328e+00) (3, 2.79176163673400878906e+00) (0, 3.04689849853515625000e+02) (1, 1.55508053302764892578e+00) (2, -3.61466264724731445312e+00) (3, -9.64719009399414062500e+01) (0, -6.86962432861328125000e+01) (1, 5.89795541763305664062e+00) (2, -1.76443847656250000000e+02) (3, 1.74574600219726562500e+02) (0, 2.63429088592529296875e+01) (1, -2.47773528099060058594e+00) (2, 1.14944291114807128906e+00) (3, 2.27818603515625000000e+01) (0, 2.28206710815429687500e+01) (1, 5.52585840225219726562e-01) (2, -1.09963262081146240234e+00) (3, -1.93792915344238281250e+00) (0, -2.60985412597656250000e+01) (1, -6.37636899948120117188e-01) (2, 1.09469354152679443359e+00) (3, 3.22017383575439453125e+00) (0, 9.99282169342041015625e+00) (1, 4.43886399269104003906e-01) (2, 3.16041976213455200195e-01) (3, -5.56732940673828125000e+00) (0, 4.29164171218872070312e+00) (1, 4.30696666240692138672e-01) (2, 5.91917097568511962891e-01) (3, -5.14411783218383789062e+00) (0, 5.55229568481445312500e+00) (1, 4.28496390581130981445e-01) (2, 5.35499513149261474609e-01) (3, -5.20023965835571289062e+00) (0, 7.02165222167968750000e+00) (1, 6.34299397468566894531e-01) (2, -3.86157131195068359375e+00) (3, 7.51512908935546875000e+00) (0, 1.92460128784179687500e+02) (1, -2.61993408203125000000e+00) (2, -1.10965576171875000000e+01) (3, 5.22246818542480468750e+01) (0, 4.27835006713867187500e+01) (1, -2.80611953735351562500e+01) (2, 5.95331001281738281250e+01) (3, 1.78055389404296875000e+02) (0, -1.34621610641479492188e+01) (1, 8.42667758464813232422e-01) (2, -3.33385610580444335938e+00) (3, 1.41684036254882812500e+01) (0, 1.41285400390625000000e+02) (1, 5.81715583801269531250e-01) (2, 3.84070396423339843750e+01) (3, -1.59596038818359375000e+02) (0, -9.64827156066894531250e+00) (1, 6.17753624916076660156e-01) (2, -6.57530069351196289062e-01) (3, 5.49545347690582275391e-01) (0, -1.15832023620605468750e+01) (1, -5.16084492206573486328e-01) (2, 9.39486503601074218750e-01) (3, 2.15318322181701660156e+00) (0, -1.34629497528076171875e+01) (1, -4.62282240390777587891e-01) (2, -1.53718963265419006348e-01) (3, 5.84771823883056640625e+00) (0, 3.92439842224121093750e+01) (1, 1.27164149284362792969e+00) (2, -8.73098564147949218750e+00) (3, -7.37979793548583984375e+00) (0, 5.03341436386108398438e+00) (1, 4.28310036659240722656e-01) (2, 5.73275089263916015625e-01) (3, -5.75489568710327148438e+00) (0, -4.42788982391357421875e+00) (1, 6.11119985580444335938e-01) (2, -6.17210745811462402344e-01) (3, 6.95127606391906738281e-01) (0, -1.27233549952507019043e-01) (1, -4.43183958530426025391e-01) (2, -6.56110584735870361328e-01) (3, 4.96142435073852539062e+00) (0, 2.72004866600036621094e+00) (1, -6.00765883922576904297e-01) (2, 7.69020736217498779297e-01) (3, -6.01124055683612823486e-02) (0, -1.40566158294677734375e+01) (1, -4.25435930490493774414e-01) (2, -3.08098405599594116211e-01) (3, 6.15032434463500976562e+00) (0, 5.22856025695800781250e+01) (1, -2.89677572250366210938e+00) (2, 1.53359770774841308594e+00) (3, 2.01572704315185546875e+01) (0, 1.85736961364746093750e+01) (1, -4.97098386287689208984e-01) (2, -1.00848102569580078125e+00) (3, 4.59532737731933593750e+00) (0, -2.05687332153320312500e+00) (1, -2.09819221496582031250e+00) (2, 1.05563712120056152344e+00) (3, 1.73961200714111328125e+01) (0, 1.78131885528564453125e+01) (1, -4.84755814075469970703e-01) (2, -9.83408033847808837891e-01) (3, 4.20425319671630859375e+00) (0, -8.71146488189697265625e+00) (1, -4.33008342981338500977e-01) (2, -4.24923300743103027344e-01) (3, 5.91582632064819335938e+00) (0, -3.79843950271606445312e+00) (1, 4.59185898303985595703e-01) (2, 7.54339158535003662109e-01) (3, -5.15163803100585937500e+00) (0, -1.69118213653564453125e+01) (1, 4.46369141340255737305e-01) (2, -1.10723698139190673828e+00) (3, 1.13523328304290771484e+00) (0, -1.42568283081054687500e+02) (1, 1.92215585708618164062e+00) (2, 6.51752624511718750000e+01) (3, -2.11452774047851562500e+02) (0, 7.52144145965576171875e+00) (1, -5.25360345840454101562e-01) (2, 1.00932109355926513672e+00) (3, 3.48172992467880249023e-01) (0, 7.57914781570434570312e+00) (1, 4.20220047235488891602e-01) (2, 4.94320273399353027344e-01) (3, -5.05625629425048828125e+00) (0, -1.76198635101318359375e+01) (1, -5.34828901290893554688e-01) (2, 9.52454864978790283203e-01) (3, 3.35287070274353027344e+00) (0, 1.22435264587402343750e+01) (1, 1.93380558490753173828e+00) (2, -1.15436959266662597656e+00) (3, -1.19646215438842773438e+01) (0, 2.05921020507812500000e+01) (1, -5.06228685379028320312e-01) (2, -1.06867134571075439453e+00) (3, 3.54540276527404785156e+00) (0, 4.47693901062011718750e+01) (1, 8.01552047729492187500e+01) (2, -7.74008712768554687500e+01) (3, -7.78093414306640625000e+01) (0, -1.75289134979248046875e+01) (1, -3.64658743143081665039e-01) (2, -3.79800051450729370117e-01) (3, 1.30462455749511718750e+00) (0, 9.40849208831787109375e+00) (1, 2.12343025207519531250e+00) (2, -1.14845490455627441406e+00) (3, -2.28101806640625000000e+01) (0, 6.37153577804565429688e+00) (1, 5.81464946269989013672e-01) (2, -9.01074707508087158203e-01) (3, -1.22426402568817138672e+00) (0, -2.03870525360107421875e+01) (1, -5.71320652961730957031e-01) (2, 3.80946707725524902344e+00) (3, -2.17329311370849609375e+00) (0, 1.99885520935058593750e+01) (1, -4.71873790025711059570e-01) (2, 1.16605460643768310547e+00) (3, -1.13405764102935791016e+00) (0, -7.89506301879882812500e+01) (1, 2.17260074615478515625e+00) (2, 1.50208053588867187500e+02) (3, -1.99796447753906250000e+02) (0, 3.23784351348876953125e+00) (1, -6.24590337276458740234e-01) (2, 7.11584091186523437500e-01) (3, -1.08615823090076446533e-01) (0, -3.11114692687988281250e+00) (1, -4.36689853668212890625e-01) (2, -5.62211990356445312500e-01) (3, 4.79731369018554687500e+00) (0, -2.61655387878417968750e+01) (1, 3.20920825004577636719e-01) (2, -8.11602711677551269531e-01) (3, 5.21790266036987304688e+00) (0, -2.19265403747558593750e+01) (1, 5.19964814186096191406e-01) (2, -1.32940971851348876953e+00) (3, 1.72757089138031005859e+00) (0, 1.55895357131958007812e+01) (1, 1.99462044239044189453e+00) (2, -1.36311769485473632812e+00) (3, -7.52129459381103515625e+00) (0, -7.19528627395629882812e+00) (1, 7.64422059059143066406e-01) (2, -3.46335172653198242188e+00) (3, 1.68874645233154296875e+01) (0, 2.55436687469482421875e+01) (1, -3.78192603588104248047e-01) (2, 9.02861952781677246094e-01) (3, -5.29545402526855468750e+00) (0, -2.22339963912963867188e+00) (1, 4.50736403465270996094e-01) (2, 6.64206802845001220703e-01) (3, -4.23500108718872070312e+00) (0, -6.19134664535522460938e+00) (1, -3.76409602165222167969e+00) (2, -6.30842685699462890625e+00) (3, 2.46229248046875000000e+01) (0, -4.99824762344360351562e+00) (1, -5.76267063617706298828e-01) (2, 8.85896563529968261719e-01) (3, 1.81213653087615966797e+00) (0, -1.05839109420776367188e+01) (1, 4.74380820989608764648e-01) (2, 8.89992177486419677734e-01) (3, -5.16052532196044921875e+00) (0, -5.82467377185821533203e-01) (1, 5.78277885913848876953e-01) (2, -7.83446431159973144531e-01) (3, -1.07732224464416503906e+00) (0, -2.78795123100280761719e+00) (1, -5.86719453334808349609e-01) (2, 8.53276789188385009766e-01) (3, 6.22430920600891113281e-01) (0, 2.84361400604248046875e+01) (1, 3.14643955230712890625e+00) (2, -8.81495971679687500000e+01) (3, -1.14528951644897460938e+01) (0, 1.12397260665893554688e+01) (1, -4.68651175498962402344e-01) (2, -8.74785721302032470703e-01) (3, 4.16709661483764648438e+00) (0, -2.94124622344970703125e+01) (1, 2.80597186088562011719e+00) (2, -3.08927607536315917969e+00) (3, -2.33139438629150390625e+01) (0, 1.58488626480102539062e+01) (1, 7.12106823921203613281e-01) (2, -1.02969920635223388672e+00) (3, -3.53104543685913085938e+00) (0, 3.39354944229125976562e+00) (1, -6.22469127178192138672e-01) (2, 7.31304168701171875000e-01) (3, -3.31558376550674438477e-01) (0, 2.83010158538818359375e+01) (1, 2.92418670654296875000e+00) (2, -7.67324972152709960938e+00) (3, 2.56312198638916015625e+01) (0, 4.52256888151168823242e-01) (1, -4.55580472946166992188e-01) (2, -6.99957489967346191406e-01) (3, 5.34974908828735351562e+00) (0, -1.29670505523681640625e+01) (1, 6.90912544727325439453e-01) (2, -2.38386869430541992188e+00) (3, 1.15636065602302551270e-02) (0, 1.43968610763549804688e+01) (1, 5.70614635944366455078e-01) (2, -9.37891006469726562500e-01) (3, -3.11987090110778808594e+00) (0, 7.46160984039306640625e+00) (1, 4.28688883781433105469e-01) (2, 4.89682942628860473633e-01) (3, -5.47172975540161132812e+00) (0, 2.53040962219238281250e+01) (1, 2.47715258598327636719e+00) (2, -3.53664326667785644531e+00) (3, -2.07669467926025390625e+01) (0, -1.57091941833496093750e+01) (1, 4.96678769588470458984e-01) (2, 9.63155150413513183594e-01) (3, -5.06554508209228515625e+00) (0, 2.20749034881591796875e+01) (1, -2.24751996994018554688e+00) (2, 1.06554327011108398438e+01) (3, -4.25227689743041992188e+00) (0, 8.51069564819335937500e+01) (1, 5.14156997203826904297e-01) (2, -4.66780138015747070312e+00) (3, 2.20293254852294921875e+01) (0, 3.82028317451477050781e+00) (1, 5.86307942867279052734e-01) (2, -8.58189046382904052734e-01) (3, -1.45304584503173828125e+00) (0, 1.11742219924926757812e+01) (1, 3.66809546947479248047e-01) (2, 6.48900568485260009766e-01) (3, -1.09706604480743408203e+00) (0, 2.82306613922119140625e+01) (1, 1.84417998790740966797e+00) (2, 6.94998264312744140625e+00) (3, -8.32748870849609375000e+01) (0, -2.02552437782287597656e+00) (1, -1.46198666095733642578e+00) (2, -6.79177236557006835938e+00) (3, 2.57341480255126953125e+01) (0, 9.84414958953857421875e+00) (1, 5.24810075759887695312e-01) (2, -9.06722545623779296875e-01) (3, -1.19733512401580810547e+00) (0, 1.35185956954956054688e+00) (1, -4.44611161947250366211e-01) (2, -6.67166948318481445312e-01) (3, 4.27745246887207031250e+00) (0, 3.38431096076965332031e+00) (1, -4.58902060985565185547e-01) (2, -7.50919520854949951172e-01) (3, 5.32199525833129882812e+00) (0, -2.60054416656494140625e+01) (1, -4.97278404235839843750e+00) (2, 1.81401646137237548828e+00) (3, 1.34126577377319335938e+01) (0, 7.38621520996093750000e+00) (1, 4.35960382223129272461e-01) (2, 4.30617928504943847656e-01) (3, -5.42604303359985351562e+00) (0, -4.96852302551269531250e+00) (1, 4.65518116950988769531e-01) (2, 7.81347990036010742188e-01) (3, -4.88033294677734375000e+00) (0, -1.98485260009765625000e+01) (1, -5.67377507686614990234e-01) (2, 5.29972362518310546875e+00) (3, -7.08719682693481445312e+00) (0, 1.39120264053344726562e+01) (1, 4.44875776767730712891e-01) (2, -9.60817694664001464844e-01) (3, -4.43479633331298828125e+00) (0, 2.46304111480712890625e+01) (1, 2.31543493270874023438e+00) (2, -1.65219211578369140625e+00) (3, -1.59591884613037109375e+01) (0, -1.21978998184204101562e+01) (1, -4.21863675117492675781e-01) (2, -3.66197794675827026367e-01) (3, 5.51738023757934570312e+00) (0, -3.05241560935974121094e+00) (1, -2.01094651222229003906e+00) (2, 1.13036298751831054688e+00) (3, 7.80510187149047851562e+00) (0, 2.63704013824462890625e+01) (1, -6.88341856002807617188e-02) (2, 5.72158634662628173828e-01) (3, -6.32616806030273437500e+00) (0, 1.36066761016845703125e+01) (1, -6.67495906352996826172e-01) (2, 2.34419330954551696777e-01) (3, -1.71158218383789062500e+00) (0, -2.71991920471191406250e+00) (1, -6.19446516036987304688e-01) (2, 8.33117961883544921875e-01) (3, 7.41397738456726074219e-01) (0, -1.95179641723632812500e+02) (1, 1.93866825103759765625e+01) (2, 1.24616746902465820312e+01) (3, -2.27997116088867187500e+02) (0, 1.71544396877288818359e+00) (1, -5.99374890327453613281e-01) (2, 6.93020522594451904297e-01) (3, 5.94123721122741699219e-01) (0, 5.77486658096313476562e+00) (1, 4.31074738502502441406e-01) (2, 5.37766218185424804688e-01) (3, -5.88089132308959960938e+00) (0, -1.70262300968170166016e+00) (1, 7.19400823116302490234e-01) (2, -3.60221219062805175781e+00) (3, 1.84857902526855468750e+01) (0, -1.46036791801452636719e+00) (1, -7.97326087951660156250e-01) (2, 3.36007833480834960938e+00) (3, -1.04081416130065917969e+00) (0, -1.84489097595214843750e+01) (1, 3.44522666931152343750e+00) (2, -3.74347615242004394531e+00) (3, -8.11911582946777343750e+00) (0, -4.30308699607849121094e-01) (1, -5.98545551300048828125e-01) (2, 7.81558871269226074219e-01) (3, 3.27989339828491210938e-01) (0, 8.43669593334197998047e-01) (1, -5.62964081764221191406e-01) (2, 7.78240740299224853516e-01) (3, 4.53314274549484252930e-01) (0, 1.21134468078613281250e+02) (1, -9.51692485809326171875e+00) (2, -8.77195739746093750000e+01) (3, 2.09745956420898437500e+02) (0, -3.32771992683410644531e+00) (1, 4.48729008436203002930e-01) (2, 7.08197355270385742188e-01) (3, -4.46000576019287109375e+00) (0, 4.49539750814437866211e-01) (1, -7.65548110008239746094e-01) (2, 3.43176960945129394531e+00) (3, -8.19873905181884765625e+00) (0, 1.42066793441772460938e+01) (1, -6.59179687500000000000e+00) (2, -5.10898399353027343750e+01) (3, 2.77828826904296875000e+02) (0, -7.12833404541015625000e+00) (1, 6.40854001045227050781e-01) (2, -4.42079812288284301758e-01) (3, 7.08994328975677490234e-01) (0, -2.75768127441406250000e+01) (1, -7.29347658157348632812e+00) (2, -2.18426055908203125000e+01) (3, 8.85368118286132812500e+01) (0, -3.59028697013854980469e-01) (1, 4.40960317850112915039e-01) (2, 6.52929544448852539062e-01) (3, -4.69934415817260742188e+00) (0, 2.21139526367187500000e+01) (1, 5.79455673694610595703e-01) (2, -8.72831881046295166016e-01) (3, -3.62403750419616699219e-01) (0, -2.24840652465820312500e+02) (1, 1.19231309890747070312e+01) (2, -6.49821519851684570312e+00) (3, -1.61151031494140625000e+02) (0, -9.12816524505615234375e+00) (1, 2.14984774589538574219e+00) (2, -1.05467915534973144531e+00) (3, -7.75351619720458984375e+00) (0, -6.98800444602966308594e-01) (1, -4.38356190919876098633e-01) (2, -6.50352060794830322266e-01) (3, 5.16299057006835937500e+00) (0, -4.58814525604248046875e+00) (1, -2.70081305503845214844e+00) (2, 6.66008567810058593750e+00) (3, 1.92164051532745361328e+00) (0, -3.74214053153991699219e+00) (1, -4.31327611207962036133e-01) (2, -5.99226772785186767578e-01) (3, 5.72255373001098632812e+00) (0, 2.85241937637329101562e+00) (1, -5.85957169532775878906e-01) (2, 6.85713946819305419922e-01) (3, 2.30007488280534744263e-02) (0, 1.00688800811767578125e+01) (1, 1.70659065246582031250e-01) (2, -7.45781469345092773438e+00) (3, 1.07920169830322265625e+01) (0, 3.22400093078613281250e+00) (1, -4.52027857303619384766e-01) (2, -7.30206727981567382812e-01) (3, 4.70638418197631835938e+00) (0, 2.95258209228515625000e+02) (1, 1.20118551254272460938e+01) (2, -3.33280873298645019531e+00) (3, -1.41647567749023437500e+02) (0, -8.30959510803222656250e+00) (1, -3.08836536407470703125e+01) (2, 2.31886856079101562500e+02) (3, 2.83998823165893554688e+00) (0, -1.64164314270019531250e+01) (1, 4.83607560396194458008e-01) (2, 9.93753135204315185547e-01) (3, -4.30807495117187500000e+00) (0, 6.91202592849731445312e+00) (1, 5.30197501182556152344e-01) (2, -8.90661418437957763672e-01) (3, -8.28994929790496826172e-01) (0, -1.19557456970214843750e+01) (1, 6.67044699192047119141e-01) (2, -3.19069474935531616211e-01) (3, 1.21760165691375732422e+00) (0, 2.61837329864501953125e+01) (1, -3.46952676773071289062e-01) (2, -9.98750269412994384766e-01) (3, 1.94370543956756591797e+00) (0, -1.90270423889160156250e+01) (1, 4.94810372591018676758e-01) (2, 9.85816061496734619141e-01) (3, -4.08169221878051757812e+00) (0, 1.68318252563476562500e+01) (1, 2.71617579460144042969e+00) (2, -6.77763605117797851562e+00) (3, -1.44876794815063476562e+01) (0, 7.34631681442260742188e+00) (1, -4.63353663682937622070e-01) (2, -8.13290774822235107422e-01) (3, 4.88083028793334960938e+00) (0, -3.27470612525939941406e+00) (1, 5.95217287540435791016e-01) (2, -7.39089488983154296875e-01) (3, -4.63097751140594482422e-01) (0, -1.49106540679931640625e+01) (1, -3.91280263662338256836e-01) (2, -4.64089304208755493164e-01) (3, 8.75829517841339111328e-01) (0, -2.35303833007812500000e+02) (1, 6.89028739929199218750e+00) (2, 2.60814261436462402344e+00) (3, -1.64045700073242187500e+02) (0, -6.33131980895996093750e+00) (1, -5.85247755050659179688e-01) (2, 8.73025476932525634766e-01) (3, 1.70746874809265136719e+00) (0, -1.41603374481201171875e+01) (1, 4.83054131269454956055e-01) (2, 9.27091419696807861328e-01) (3, -4.81267309188842773438e+00) (0, 1.47945365905761718750e+01) (1, 1.40629202127456665039e-01) (2, -7.70115613937377929688e+00) (3, 1.67920951843261718750e+01) (0, 6.22227716445922851562e+00) (1, 6.72111630439758300781e-01) (2, -3.88406038284301757812e+00) (3, 2.54883708953857421875e+01) (0, -4.33227844238281250000e+01) (1, 2.72547149658203125000e+00) (2, -1.41620373725891113281e+00) (3, -1.71675319671630859375e+01) (0, -1.67407169342041015625e+01) (1, 4.87954169511795043945e-01) (2, 9.75635170936584472656e-01) (3, -4.74530935287475585938e+00) (0, 1.33935022354125976562e+01) (1, 4.43767637014389038086e-01) (2, 2.52316445112228393555e-01) (3, -6.49514579772949218750e+00) (0, -2.90544967651367187500e+01) (1, 6.55804634094238281250e+00) (2, -7.89191532135009765625e+00) (3, 2.01335563659667968750e+01) (0, 1.53354859352111816406e+00) (1, 4.42402243614196777344e-01) (2, 6.47908806800842285156e-01) (3, -5.47724676132202148438e+00) (0, -4.40949020385742187500e+01) (1, 4.00405931472778320312e+00) (2, -3.47988605499267578125e+00) (3, 6.13358139991760253906e-01) (0, 1.73803825378417968750e+01) (1, -5.10157465934753417969e-01) (2, 1.17228460311889648438e+00) (3, -1.36322605609893798828e+00) (0, 3.80520725250244140625e+00) (1, -6.27596199512481689453e-01) (2, 7.06818521022796630859e-01) (3, -4.20392692089080810547e-01) (4, -5.92929363250732421875e-01) (5, -6.47641897201538085938e+00) (6, 9.95555496215820312500e+00) (7, -9.61557388305664062500e-01) (8, -1.01432189941406250000e+01) (9, -3.93988347053527832031e+00) (10, -8.20169353485107421875e+00) (11, 4.10396909713745117188e+00) (12, 8.21127355098724365234e-01) (13, -8.64134883880615234375e+00) (14, 1.32545304298400878906e+00) (15, 3.74785518646240234375e+00) (16, -1.14107668399810791016e+00) (17, 3.69771569967269897461e-01) (18, 7.02434206008911132812e+00) (19, -9.76680278778076171875e-01) (20, 4.25424766540527343750e+00) (21, -1.47731566429138183594e+00) (22, -4.32421356439590454102e-01) (23, -6.72513723373413085938e-01) (24, 2.46425938606262207031e+00) (25, 1.70377123355865478516e+00) (26, 1.77144932746887207031e+00) (27, -7.58753657341003417969e-01) (28, -4.14939165115356445312e+00) (29, -8.39576816558837890625e+00) (30, 1.56474006175994873047e+00) (31, 6.08017301559448242188e+00) (32, -1.96739447116851806641e+00) (33, -1.47917652130126953125e+00) (34, 7.12394058704376220703e-01) (35, -7.10716962814331054688e-01) (36, 1.40708169937133789062e+01) (37, 1.13310301303863525391e+00) (38, 1.06725561618804931641e+00) (39, 1.19149601459503173828e+00) (40, -1.69881260395050048828e+00) (41, -9.32605934143066406250e+00) (42, -3.31630706787109375000e+00) (43, -3.99999833106994628906e+00) (44, 2.14738950133323669434e-01) (45, 3.80764842033386230469e+00) (46, -1.76744019985198974609e+00) (47, 7.68990099430084228516e-01) (48, 6.14453554153442382812e+00) (49, 2.35205173492431640625e+00) (50, -3.09689092636108398438e+00) (51, 2.67847108840942382812e+00) (52, 2.66230607032775878906e+00) (53, -5.99981784820556640625e+00) (54, -3.47454428672790527344e+00) (55, 8.01183819770812988281e-01) (56, 3.39608502388000488281e+00) (57, -1.63603043556213378906e+00) (58, -1.42949762344360351562e+01) (59, -1.65910542011260986328e+00) (60, -5.96627473831176757812e-01) (61, 1.03015098571777343750e+01) (62, 2.60519504547119140625e+00) (63, 7.85119056701660156250e+00) (64, 2.63229823112487792969e+00) (65, 1.31951940059661865234e+00) (66, 3.00047326087951660156e+00) (67, -6.66481399536132812500e+00) (68, -5.28611230850219726562e+00) (69, -2.24231767654418945312e+00) (70, -3.15985989570617675781e+00) (71, -1.83512611389160156250e+01) (72, -3.76968359947204589844e+00) (73, -6.96617650985717773438e+00) (74, -1.67560529708862304688e+00) (75, -9.49587154388427734375e+00) (76, -8.86359786987304687500e+00) (77, -1.26793396472930908203e+00) (78, -5.15186548233032226562e+00) (79, -3.94864946603775024414e-01) (80, 2.07354307174682617188e+00) (81, -1.40836267471313476562e+01) (82, 9.84848308563232421875e+00) (83, 8.76211166381835937500e-01) (84, -1.86573994159698486328e+00) (85, 3.31653976440429687500e+00) (86, -7.23933041095733642578e-01) (87, -7.74683284759521484375e+00) (88, -2.04158258438110351562e+00) (89, 1.32980251312255859375e+00) (90, -6.67184114456176757812e-01) (91, -1.75251853466033935547e+00) (92, 3.98669362068176269531e+00) (93, -1.00877523422241210938e+00) (94, 3.57634878158569335938e+00) (95, -2.16407089233398437500e+01) (96, -6.01958811283111572266e-01) (97, -1.82814145088195800781e+00) (98, 3.68358349800109863281e+00) (99, 4.98703432083129882812e+00) (100, 4.13018226623535156250e+00) (101, 1.12160265445709228516e+00) (102, -5.81607246398925781250e+00) (103, 1.26291859149932861328e+00) (104, -1.68779230117797851562e+00) (105, 1.39393448829650878906e+00) (106, 2.52774691581726074219e+00) (107, -3.88127470016479492188e+00) (108, 1.38527941703796386719e+00) (109, 3.56290030479431152344e+00) (110, -3.40725469589233398438e+00) (111, 4.23767995834350585938e+00) (112, 1.61642150878906250000e+01) (113, 7.81667327880859375000e+00) (114, 1.04421424865722656250e+00) (115, 5.38907623291015625000e+00) (116, 9.31662499904632568359e-01) (117, 1.14371085166931152344e+00) (118, -1.51572966575622558594e+00) (119, -2.77915167808532714844e+00) (120, 2.16157341003417968750e+01) (121, -2.17892885208129882812e-01) (122, -7.28730583190917968750e+00) (123, -4.24378919601440429688e+00) (124, -1.10447299480438232422e+00) (125, -2.00493788719177246094e+00) (126, 2.41697096824645996094e+00) (127, 3.65869903564453125000e+00) (128, 1.09921896457672119141e+00) (129, 1.08371937274932861328e+00) (130, -8.57602596282958984375e+00) (131, -1.01767969131469726562e+00) (132, -2.16111755371093750000e+01) (133, 1.12499558925628662109e+00) (134, -4.12151718139648437500e+00) (135, -7.24098756909370422363e-02) (136, -3.83685636520385742188e+00) (137, -1.44447553157806396484e+00) (138, 1.24643926620483398438e+01) (139, 3.39635586738586425781e+00) (140, 4.38542985916137695312e+00) (141, 8.50948631763458251953e-01) (142, -3.13236117362976074219e+00) (143, -8.84964406490325927734e-01) (144, 3.05171895027160644531e+00) (145, -3.67168426513671875000e+00) (146, 2.72465348243713378906e+00) (147, 3.61297774314880371094e+00) (148, 3.80684614181518554688e+00) (149, -1.03364014625549316406e+00) (150, -1.36245071887969970703e+00) (151, -1.56677353382110595703e+00) (152, -1.03358860015869140625e+01) (153, 1.04643917083740234375e+00) (154, 1.79892027378082275391e+00) (155, 4.32345151901245117188e+00) (156, -8.97776126861572265625e+00) (157, -2.66058564186096191406e+00) (158, -1.18041098117828369141e+00) (159, -3.28584861755371093750e+00) (160, -9.18310344219207763672e-01) (161, -1.39673697948455810547e+00) (162, -1.93078482151031494141e+00) (163, -3.87375140190124511719e+00) (164, 3.18418335914611816406e+00) (165, 5.08389425277709960938e+00) (166, 3.30981993675231933594e+00) (167, -2.57693338394165039062e+00) (168, 8.43008518218994140625e-01) (169, 8.46763324737548828125e+00) (170, 1.19260466098785400391e+00) (171, -3.77970170974731445312e+00) (172, 1.22979831695556640625e+00) (173, -1.11272697448730468750e+01) (174, 1.36460030078887939453e+00) (175, 7.51679360866546630859e-01) (176, 1.12883079051971435547e+00) (177, 2.22255754470825195312e+00) (178, -4.83301222324371337891e-01) (179, 7.05006122589111328125e+00) (180, 4.09406423568725585938e+00) (181, 2.13441085815429687500e+01) (182, -1.76630508899688720703e+00) (183, 1.51695156097412109375e+00) (184, -2.80548381805419921875e+00) (185, 1.73903986811637878418e-01) (186, -7.84729766845703125000e+00) (187, -4.25257301330566406250e+00) (188, -3.68927359580993652344e+00) (189, -3.33469963073730468750e+00) (190, 6.79087066650390625000e+00) (191, 3.62410616874694824219e+00) (192, -8.58767700195312500000e+00) (193, -5.39789485931396484375e+00) (194, -1.38264760971069335938e+01) (195, 3.49701833724975585938e+00) (196, 9.97778892517089843750e+00) (197, -1.85160362720489501953e+00) (198, -1.14463841915130615234e+00) (199, 1.36492371559143066406e+00) (200, -3.77189993858337402344e+00) (201, 1.05798852443695068359e+00) (202, 1.89960539340972900391e+00) (203, 4.45119333267211914062e+00) (204, 3.75366282463073730469e+00) (205, -1.32729711532592773438e+01) (206, -8.33883953094482421875e+00) (207, 2.22083592414855957031e+00) (208, -8.38188743591308593750e+00) (209, 2.91410446166992187500e+00) (210, 3.92645645141601562500e+00) (211, 6.34714961051940917969e-01) (212, 6.30873382091522216797e-01) (213, -6.25362396240234375000e+00) (214, 1.49494433403015136719e+00) (215, -6.98642730712890625000e+00) (216, 3.93947935104370117188e+00) (217, -3.21910762786865234375e+00) (218, 2.95283365249633789062e+00) (219, -3.03267335891723632812e+00) (220, 9.35422420501708984375e+00) (221, -1.75723719596862792969e+00) (222, 3.72020745277404785156e+00) (223, 1.61017477512359619141e+00) (224, 4.01284307241439819336e-01) (225, 5.49267351627349853516e-01) (226, -9.04253482818603515625e-01) (227, 8.97413730621337890625e-01) (228, 1.13382983207702636719e+00) (229, 3.83857560157775878906e+00) (230, 7.78062295913696289062e+00) (231, -2.22901415824890136719e+00) (232, 1.07794213294982910156e+00) (233, -3.42567420005798339844e+00) (234, -3.17221403121948242188e+00) (235, 2.12307381629943847656e+00) (236, 3.21839523315429687500e+00) (237, 1.86097514629364013672e+00) (238, 2.85862426757812500000e+01) (239, -4.63660526275634765625e+00) (240, 9.51038551330566406250e+00) (241, 1.28277337551116943359e+00) (242, -1.71629440784454345703e+00) (243, 2.69470047205686569214e-02) (244, 4.99631261825561523438e+00) (245, 1.74508190155029296875e+00) (246, -4.09966373443603515625e+00) (247, -3.59798192977905273438e+00) (248, -6.14980363845825195312e+00) (249, -1.05841565132141113281e+00) (250, -8.39034438133239746094e-01) (251, -5.16573572158813476562e+00) (252, -5.31284618377685546875e+00) (253, -3.13616394996643066406e-01) (254, 7.85662078857421875000e+00) (255, -1.58561635017395019531e+00) (256, 1.11137223243713378906e+00) (257, -9.12022709846496582031e-01) (258, 8.47475624084472656250e+00) (259, 5.00110912322998046875e+00) (260, 1.75876510143280029297e+00) (261, -1.13090777397155761719e+00) (262, 7.79035520553588867188e+00) (263, -4.61628532409667968750e+00) (264, -1.32893815636634826660e-01) (265, 7.28708457946777343750e+00) (266, 6.52331590652465820312e+00) (267, -2.34206509590148925781e+00) (268, 2.00263738632202148438e+00) (269, -3.98059296607971191406e+00) (270, -1.77130508422851562500e+00) (271, 1.64406609535217285156e+00) (272, -5.90081977844238281250e+00) (273, -1.43467473983764648438e+00) (274, 3.08384150266647338867e-01) (275, -9.86210346221923828125e+00) (276, -4.30016756057739257812e+00) (277, 3.13641858100891113281e+00) (278, 1.25780546665191650391e+00) (279, 1.07006323337554931641e+00) (280, 1.01493942737579345703e+00) (281, 2.67548966407775878906e+00) (282, 6.05528593063354492188e+00) (283, 9.80815982818603515625e+00) (284, 6.33670520782470703125e+00) (285, -1.08622646331787109375e+00) (286, -3.39395403861999511719e+00) (287, 4.06590366363525390625e+00) (288, -1.56190657615661621094e+00) (289, 4.97064679861068725586e-01) (290, 7.93335556983947753906e-01) (291, -3.87049484252929687500e+00) (292, -1.51724970340728759766e+00) (293, -2.39060282707214355469e+00) (294, -1.08564043045043945312e+00) (295, -8.39317607879638671875e+00) (296, -1.27984988689422607422e+00) (297, -8.79227733612060546875e+00) (298, -1.94799041748046875000e+00) (299, -1.06193745136260986328e+00) (300, 9.48202490806579589844e-01) (301, -3.22533965110778808594e+00) (302, 1.50745548307895660400e-02) (303, 4.19670915603637695312e+00) (304, 1.55307459831237792969e+00) (305, 4.79771375656127929688e+00) (306, 7.59540796279907226562e+00) (307, -2.40967416763305664062e+00) (308, 4.77867275476455688477e-01) (309, 1.67472052574157714844e+00) (310, 9.69413852691650390625e+00) (311, 8.24376642704010009766e-01) (312, 2.53978633880615234375e+00) (313, 3.54252314567565917969e+00) (314, 3.67598605155944824219e+00) (315, -1.55657291412353515625e+00) (316, -1.32587194442749023438e+00) (317, -1.77323508262634277344e+00) (318, -2.99408078193664550781e+00) (319, 7.32501792907714843750e+00) (320, 5.85842132568359375000e+00) (321, 1.78336000442504882812e+00) (322, 2.16508603096008300781e+00) (323, 1.06543827056884765625e+00) (324, -1.82531428337097167969e+00) (325, 1.01546049118041992188e+00) (326, 2.12883925437927246094e+00) (327, -6.49893879890441894531e-01) (328, -3.06141543388366699219e+00) (329, -2.17582988739013671875e+00) (330, 5.83738660812377929688e+00) (331, 6.47946894168853759766e-01) (332, -2.22641420364379882812e+00) (333, 1.16856966018676757812e+01) (334, -9.09194231033325195312e-01) (335, -4.83142328262329101562e+00) (336, -2.00994825363159179688e+00) (337, 9.77444767951965332031e-01) (338, -7.84715270996093750000e+00) (339, 1.04741644859313964844e+00) (340, 2.74433183670043945312e+00) (341, 1.01917991638183593750e+01) (342, 2.13281154632568359375e+00) (343, -2.06561493873596191406e+00) (344, -6.29028272628784179688e+00) (345, 1.89766633510589599609e+00) (346, -3.88627696037292480469e+00) (347, -1.72150170803070068359e+00) (348, -1.03491580486297607422e+00) (349, -5.95959329605102539062e+00) (350, 1.63475596904754638672e+00) (351, 9.15323078632354736328e-01) (352, -2.20584511756896972656e+00) (353, -5.20118141174316406250e+00) (354, 8.91527843475341796875e+00) (355, -1.52128899097442626953e+00) (356, -7.28805828094482421875e+00) (357, 1.31072700023651123047e+00) (358, 3.50304603576660156250e+00) (359, -2.50618815422058105469e+00) (360, 1.40041265487670898438e+01) (361, 2.83377408981323242188e+00) (362, 1.12699019908905029297e+00) (363, 6.63849925994873046875e+00) (364, 2.33423185348510742188e+00) (365, -1.26452989578247070312e+01) (366, 5.19230425357818603516e-01) (367, 3.84715890884399414062e+00) (368, 4.36281108856201171875e+00) (369, 2.00734758377075195312e+00) (370, -2.15505433082580566406e+00) (371, 4.18501472473144531250e+00) (372, -3.02834248542785644531e+00) (373, 6.32952404022216796875e+00) (374, 1.51180338859558105469e+00) (375, -4.02266883850097656250e+00) (376, -3.09402894973754882812e+00) (377, 5.86014461517333984375e+00) (378, -1.22783565521240234375e+00) (379, -3.51390385627746582031e+00) (380, -1.04349553585052490234e+00) (381, 3.62964034080505371094e+00) (382, 2.86577415466308593750e+00) (383, -1.60405659675598144531e+00) (384, -7.23560953140258789062e+00) (385, -1.61848878860473632812e+00) (386, 1.43094944953918457031e+00) (387, -3.71183919906616210938e+00) (388, -3.06162357330322265625e+00) (389, -3.00007867813110351562e+00) (390, 1.73924362659454345703e+00) (391, 2.98445796966552734375e+00) (392, -1.35874855518341064453e+00) (393, 2.15318155288696289062e+00) (394, 1.60852360725402832031e+00) (395, -7.00461292266845703125e+00) (396, -3.10958862304687500000e-01) (397, 1.30974113941192626953e+00) (398, 5.86346578598022460938e+00) (399, 5.51260423660278320312e+00) (400, 7.65416479110717773438e+00) (401, 1.24526643753051757812e+00) (402, 8.10533285140991210938e-01) (403, -2.09043407440185546875e+01) (404, 9.46628153324127197266e-01) (405, -1.36265459060668945312e+01) (406, 3.39558839797973632812e+00) (407, -1.84758663177490234375e+00) (408, -2.60824728012084960938e+00) (4, 3.50106954574584960938e+00) (5, -1.35687768459320068359e+00) (6, 4.81125593185424804688e+00) (7, -3.81161987781524658203e-01) (8, -2.13262057304382324219e+00) (9, -5.09452521800994873047e-01) (10, -4.32044744491577148438e+00) (11, -7.80248865485191345215e-02) (12, -5.95985874533653259277e-02) (13, -3.90385687351226806641e-01) (14, 1.76439896225929260254e-01) (15, -1.51777048110961914062e+01) (16, -2.30028018355369567871e-01) (17, -1.65014660358428955078e+00) (18, 1.27590298652648925781e+00) (19, -3.04360628128051757812e-01) (20, -5.00446677207946777344e-01) (21, -4.18552368879318237305e-01) (22, -5.98769617080688476562e+00) (23, -2.30841085314750671387e-01) (24, 3.12715768814086914062e+00) (25, 3.55146527290344238281e-01) (26, 3.06379246711730957031e+00) (27, -3.20426851511001586914e-01) (28, -9.35333967208862304688e-01) (29, 3.09214925765991210938e+00) (30, -7.14389979839324951172e-01) (31, -1.62776827812194824219e+00) (32, 6.55876588821411132812e+00) (33, 1.97083985805511474609e+00) (34, 1.19797968864440917969e+00) (35, -1.21591806411743164062e+00) (36, 5.27207469940185546875e+00) (37, 3.08928608894348144531e-01) (38, 2.50974029302597045898e-01) (39, 4.00293320417404174805e-01) (40, -4.43516254425048828125e-01) (41, -6.48433351516723632812e+00) (42, -1.39551389217376708984e+00) (43, 8.29663127660751342773e-02) (44, 1.27932488918304443359e+00) (45, -6.50941467285156250000e+01) (46, -3.42951595783233642578e-01) (47, 1.28997409343719482422e+00) (48, 1.64909911155700683594e+00) (49, 9.36764955520629882812e-01) (50, -1.43038833141326904297e+00) (51, -4.46021884679794311523e-01) (52, 1.64423406124114990234e-01) (53, -2.59780263900756835938e+00) (54, -1.26960051059722900391e+00) (55, 1.10137438774108886719e+00) (56, -3.65597009658813476562e-01) (57, -5.66117286682128906250e-01) (58, 1.64744031429290771484e+00) (59, -5.62138736248016357422e-01) (60, -1.44790649414062500000e+00) (61, -6.44093179702758789062e+00) (62, -2.01876029968261718750e+01) (63, 1.30603444576263427734e+00) (64, -7.15232896804809570312e+00) (65, -7.28535890579223632812e-01) (66, 3.71543383598327636719e+00) (67, -1.20203614234924316406e+00) (68, -8.72444272041320800781e-01) (69, 1.51325851678848266602e-01) (70, 6.18645288050174713135e-02) (71, 1.69555416107177734375e+01) (72, -7.99900710582733154297e-01) (73, -3.37415623664855957031e+00) (74, -3.42630773782730102539e-01) (75, 2.43127655982971191406e+00) (76, -1.70267716050148010254e-01) (77, -3.18185305595397949219e+00) (78, 2.79608225822448730469e+00) (79, -3.83461880683898925781e+00) (80, -6.27328336238861083984e-01) (81, 4.89137125015258789062e+00) (82, 4.50198698043823242188e+00) (83, 2.65437990427017211914e-01) (84, -1.12981224060058593750e+00) (85, 1.38639342784881591797e+00) (86, -1.33128118515014648438e+00) (87, 5.89352321624755859375e+00) (88, -8.79017651081085205078e-01) (89, -8.12553167343139648438e-01) (90, 7.27510631084442138672e-01) (91, 1.39864361286163330078e+00) (92, 1.43391931056976318359e+00) (93, -2.82342195510864257812e+00) (94, 2.98155933618545532227e-01) (95, 2.23635158538818359375e+01) (96, 7.87738084793090820312e-01) (97, 5.33015012741088867188e-01) (98, 4.10175919532775878906e-01) (99, -2.52486795186996459961e-01) (100, 1.27471053600311279297e+00) (101, 3.40046852827072143555e-01) (102, 1.01772651672363281250e+02) (103, 7.44314432144165039062e-01) (104, -7.43764758110046386719e-01) (105, 3.31533700227737426758e-01) (106, 1.13357901573181152344e+00) (107, -1.13266253471374511719e+00) (108, 5.32793521881103515625e-01) (109, 9.96195137500762939453e-01) (110, -3.94342124462127685547e-01) (111, 7.58721053600311279297e-01) (112, -2.99971222877502441406e+00) (113, -2.82506108283996582031e+00) (114, 2.40123763680458068848e-01) (115, 3.96883249282836914062e-01) (116, 5.31674957275390625000e+00) (117, 3.36754620075225830078e-01) (118, -8.68048369884490966797e-01) (119, -4.96352481842041015625e+00) (120, 8.54728221893310546875e+00) (121, -2.38918196409940719604e-02) (122, -1.21514856815338134766e+00) (123, -4.20188486576080322266e-01) (124, -3.40163797140121459961e-01) (125, 9.75405097007751464844e-01) (126, 5.83604335784912109375e+00) (127, -5.31370699405670166016e-01) (128, 1.30022835731506347656e+00) (129, -3.55612611770629882812e+00) (130, -6.15987539291381835938e-01) (131, -8.39825868606567382812e-01) (132, 5.67517995834350585938e+00) (133, 5.06424307823181152344e-01) (134, -4.48625892400741577148e-01) (135, -1.76260039210319519043e-01) (136, 9.00151371955871582031e-01) (137, -2.65124171972274780273e-01) (138, -8.71783828735351562500e+00) (139, 1.37314724922180175781e+00) (140, 9.31296706199645996094e-01) (141, 1.89277529716491699219e-01) (142, -4.62812222540378570557e-02) (143, -2.70494341850280761719e-01) (144, 1.27005100250244140625e+00) (145, -3.49536657333374023438e+00) (146, -7.26067602634429931641e-01) (147, -7.65981769561767578125e+00) (148, 1.43797767162322998047e+00) (149, -5.14146387577056884766e-01) (150, -3.13116490840911865234e-01) (151, -7.01987206935882568359e-01) (152, 5.70589208602905273438e+00) (153, 6.09918177127838134766e-01) (154, 1.34243488311767578125e+00) (155, 6.58100172877311706543e-02) (156, -8.83224248886108398438e-01) (157, 7.84263610839843750000e-01) (158, 2.19076137542724609375e+01) (159, -1.23302876949310302734e+00) (160, -3.89234989881515502930e-01) (161, -8.69525134563446044922e-01) (162, -3.51806700229644775391e-01) (163, -2.23457360267639160156e+00) (164, 1.82854712009429931641e-01) (165, -4.95331335067749023438e+00) (166, 1.68440997600555419922e+00) (167, -5.13308465480804443359e-01) (168, 3.87495100498199462891e-01) (169, 7.13302755355834960938e+00) (170, -3.63761401176452636719e+00) (171, 1.87082064151763916016e+00) (172, 2.56147241592407226562e+00) (173, -6.17493534088134765625e+00) (174, 3.11667680740356445312e-01) (175, -4.09571141004562377930e-01) (176, 4.59496438503265380859e-01) (177, 1.00158667564392089844e+00) (178, -1.72785028815269470215e-01) (179, -2.35865426063537597656e+00) (180, 5.32547593116760253906e-01) (181, 8.09472978115081787109e-01) (182, 7.65934526920318603516e-01) (183, 2.21419781446456909180e-01) (184, 7.12234228849411010742e-02) (185, 1.23676490783691406250e+00) (186, -3.34186053276062011719e+00) (187, -7.61006593704223632812e-01) (188, -2.25060090422630310059e-01) (189, -1.85324037075042724609e+00) (190, -5.64912223815917968750e+00) (191, 1.64648275822401046753e-02) (192, -2.39369559288024902344e+00) (193, -4.19128775596618652344e-01) (194, 3.10906934738159179688e+00) (195, 1.30358302593231201172e+00) (196, -1.27295994758605957031e+00) (197, -8.15866172313690185547e-01) (198, -4.20508444309234619141e-01) (199, 6.41599416732788085938e-01) (200, -1.22472810745239257812e+00) (201, 3.42000275850296020508e-01) (202, -7.78701186180114746094e-01) (203, 3.41423654556274414062e+00) (204, 2.26570628583431243896e-02) (205, 3.92271351814270019531e+00) (206, -8.40382874011993408203e-01) (207, 9.86493289470672607422e-01) (208, -2.97198742628097534180e-02) (209, 2.89939343929290771484e-01) (210, 8.91818523406982421875e-01) (211, 4.52601194381713867188e-01) (212, 2.52388715744018554688e-01) (213, -4.10943841934204101562e+00) (214, 2.53105372190475463867e-01) (215, 7.15042257308959960938e+00) (216, 1.68954601287841796875e+01) (217, 3.20483446121215820312e-01) (218, -2.17029690742492675781e-01) (219, 4.50359046459197998047e-01) (220, -3.26236701011657714844e+00) (221, 5.32101535797119140625e+00) (222, 1.11898291110992431641e+00) (223, 5.80251574516296386719e-01) (224, -2.23446297645568847656e+00) (225, 1.26690968871116638184e-01) (226, -9.71276387572288513184e-02) (227, 2.82102346420288085938e-01) (228, 9.65457499027252197266e-01) (229, 1.53786087036132812500e+00) (230, 8.48409771919250488281e-01) (231, -7.54595458507537841797e-01) (232, 4.49134397506713867188e+00) (233, 9.87886524200439453125e+00) (234, 4.01293724775314331055e-01) (235, 2.17441931366920471191e-01) (236, -2.00355425477027893066e-01) (237, 8.04838895797729492188e-01) (238, -1.07389867305755615234e+00) (239, 1.03219628334045410156e+00) (240, 4.05802345275878906250e+00) (241, 3.64121764898300170898e-01) (242, 5.44608712196350097656e-01) (243, -1.02836978435516357422e+00) (244, 3.97691547870635986328e-01) (245, 6.79812133312225341797e-01) (246, -1.63633912801742553711e-01) (247, -1.28733432292938232422e+00) (248, -1.54148662090301513672e+00) (249, -1.32818174362182617188e+01) (250, -2.66816645860671997070e-01) (251, -3.35862112045288085938e+00) (252, 4.26708793640136718750e+00) (253, -2.79554903507232666016e-01) (254, 4.11122465133666992188e+00) (255, 6.86442673206329345703e-01) (256, 5.01215755939483642578e-01) (257, -3.84323298931121826172e-01) (258, 8.08960914611816406250e-01) (259, 8.97976219654083251953e-01) (260, 6.54141426086425781250e+00) (261, -7.39203155040740966797e-01) (262, 1.07404208183288574219e+00) (263, -6.82704448699951171875e-01) (264, -7.37722218036651611328e-02) (265, 9.84065651893615722656e-01) (266, -2.27987408638000488281e+00) (267, -9.75936174392700195312e-01) (268, 8.06181728839874267578e-01) (269, -2.73676931858062744141e-01) (270, -6.71122133731842041016e-01) (271, 4.03981655836105346680e-01) (272, -1.59916484355926513672e+00) (273, 7.74416625499725341797e-02) (274, 7.93804705142974853516e-01) (275, 5.53278207778930664062e-01) (276, -1.34031736850738525391e+00) (277, 4.05034869909286499023e-02) (278, 4.76466387510299682617e-01) (279, 4.24101650714874267578e-01) (280, 3.73891174793243408203e-01) (281, 1.76553785800933837891e+00) (282, -1.34290122985839843750e+00) (283, 6.32011651992797851562e+00) (284, -2.57118797302246093750e+00) (285, 7.99173164367675781250e+00) (286, 5.28892219066619873047e-01) (287, 3.21597367525100708008e-01) (288, -6.20794177055358886719e-01) (289, 8.63000631332397460938e-01) (290, 5.35629689693450927734e-01) (291, -7.54246830940246582031e-01) (292, -4.62862193584442138672e-01) (293, -9.14946556091308593750e-01) (294, -7.30648338794708251953e-01) (295, -1.14713978767395019531e+00) (296, -5.97681701183319091797e-01) (297, -5.85649132728576660156e-01) (298, -5.82734704017639160156e-01) (299, -6.79761528968811035156e-01) (300, 3.86396050453186035156e-01) (301, 3.10490518808364868164e-01) (302, -4.33990049362182617188e+00) (303, -2.91920363903045654297e-01) (304, 8.11210215091705322266e-01) (305, 6.94391667842864990234e-01) (306, 1.13289499282836914062e+00) (307, -7.58760929107666015625e-01) (308, 9.42488193511962890625e-01) (309, 1.50169622898101806641e+00) (310, -1.33557736873626708984e+00) (311, 9.64028179645538330078e-01) (312, 6.81788027286529541016e-01) (313, -5.47852776944637298584e-02) (314, -2.35247516632080078125e+00) (315, -1.22951161861419677734e+00) (316, -3.22862267494201660156e-01) (317, -7.90850341320037841797e-01) (318, 4.83990311622619628906e-01) (319, 1.15939581394195556641e+00) (320, -5.24272966384887695312e+00) (321, 8.81248414516448974609e-01) (322, 4.94295209646224975586e-01) (323, -1.47101414203643798828e+00) (324, -9.27826642990112304688e-01) (325, 2.45414629578590393066e-01) (326, 8.05096328258514404297e-01) (327, -1.10412061214447021484e+00) (328, 2.33380809426307678223e-01) (329, -7.96271085739135742188e-01) (330, 4.28119230270385742188e+00) (331, 8.48965346813201904297e-01) (332, -1.10410392284393310547e+00) (333, -1.05861864089965820312e+01) (334, -4.88486677408218383789e-01) (335, 3.48903119564056396484e-01) (336, 5.44005751609802246094e-01) (337, 4.47095215320587158203e-01) (338, 1.10892367362976074219e+00) (339, 4.34373229742050170898e-01) (340, 3.62990200519561767578e-01) (341, -1.10149412155151367188e+01) (342, 9.92711663246154785156e-01) (343, -1.36977064609527587891e+00) (344, -2.97614741325378417969e+00) (345, -6.31133913993835449219e-01) (346, -1.97417461872100830078e+00) (347, -3.53707879781723022461e-01) (348, -3.18185269832611083984e-01) (349, 1.09416246414184570312e+00) (350, 4.88505989313125610352e-01) (351, 2.55811154842376708984e-01) (352, -1.47648739814758300781e+00) (353, -1.22630119323730468750e+00) (354, 9.20236229896545410156e-01) (355, -7.86701381206512451172e-01) (356, -1.42072033882141113281e+00) (357, 1.12104475498199462891e+00) (358, 1.71998292207717895508e-01) (359, -1.15873086452484130859e+00) (360, -7.29122924804687500000e+00) (361, -8.47635269165039062500e-01) (362, 4.80341494083404541016e-01) (363, -1.94388020038604736328e+00) (364, 2.32284450531005859375e+00) (365, 2.67658543586730957031e+00) (366, -1.08624470233917236328e+00) (367, 2.88830399513244628906e-01) (368, -4.62879419326782226562e+00) (369, 4.52932536602020263672e-01) (370, 1.88666403293609619141e+00) (371, 2.52909922599792480469e+00) (372, 6.14825114607810974121e-02) (373, -1.52349777221679687500e+01) (374, 3.50120455026626586914e-01) (375, -1.46655118465423583984e+00) (376, -3.44700264930725097656e+00) (377, 1.86773228645324707031e+00) (378, -4.20844346284866333008e-01) (379, 6.88304901123046875000e+00) (380, -4.01584386825561523438e-01) (381, 4.55334544181823730469e-01) (382, 4.68480443954467773438e+00) (383, -3.19103032350540161133e-01) (384, -5.40813302993774414062e+00) (385, -2.18177151679992675781e+00) (386, 2.28957682847976684570e-01) (387, -7.47666537761688232422e-01) (388, 6.75104081630706787109e-01) (389, -1.30391263961791992188e+00) (390, 4.79233145713806152344e-01) (391, 5.34472703933715820312e-01) (392, -3.94950121641159057617e-01) (393, 7.85129606723785400391e-01) (394, 1.57839047908782958984e+00) (395, -3.85370516777038574219e+00) (396, -1.35878705978393554688e+00) (397, 4.41933363676071166992e-01) (398, 6.29017019271850585938e+00) (399, -7.95032596588134765625e+00) (400, 1.84592759609222412109e+00) (401, 4.97622966766357421875e-01) (402, 7.59175896644592285156e-01) (403, 6.92425251007080078125e+00) (404, 4.34574216604232788086e-01) (405, 4.09730577468872070312e+00) (406, -2.08707585930824279785e-01) (407, -1.06897652149200439453e+00) (408, -1.20608034133911132812e+01) (4, 1.49115002155303955078e+00) (5, -5.14608621597290039062e-02) (6, -2.74280834197998046875e+00) (7, -1.04974471032619476318e-01) (8, 2.86032562255859375000e+01) (9, -9.20000493526458740234e-01) (10, -4.42375630140304565430e-01) (11, 4.48173403739929199219e-01) (12, -1.41858792304992675781e+00) (13, -4.68925595283508300781e-01) (14, 4.37791168689727783203e-01) (15, -1.13495483398437500000e+01) (16, -6.49384319782257080078e-01) 